{"learner":{"attributes":{"scikit_learn":"{\"_estimator_type\": \"classifier\"}"},"feature_names":[],"feature_types":[],"gradient_booster":{"model":{"gbtree_model_param":{"num_parallel_tree":"1","num_trees":"200"},"iteration_indptr":[0,1,2,3,4,5,6,7,8,9,10,11,12,13,14,15,16,17,18,19,20,21,22,23,24,25,26,27,28,29,30,31,32,33,34,35,36,37,38,39,40,41,42,43,44,45,46,47,48,49,50,51,52,53,54,55,56,57,58,59,60,61,62,63,64,65,66,67,68,69,70,71,72,73,74,75,76,77,78,79,80,81,82,83,84,85,86,87,88,89,90,91,92,93,94,95,96,97,98,99,100,101,102,103,104,105,106,107,108,109,110,111,112,113,114,115,116,117,118,119,120,121,122,123,124,125,126,127,128,129,130,131,132,133,134,135,136,137,138,139,140,141,142,143,144,145,146,147,148,149,150,151,152,153,154,155,156,157,158,159,160,161,162,163,164,165,166,167,168,169,170,171,172,173,174,175,176,177,178,179,180,181,182,183,184,185,186,187,188,189,190,191,192,193,194,195,196,197,198,199,200],"tree_info":[0,0,0,0,0,0,0,0,0,0,0,0,0,0,0,0,0,0,0,0,0,0,0,0,0,0,0,0,0,0,0,0,0,0,0,0,0,0,0,0,0,0,0,0,0,0,0,0,0,0,0,0,0,0,0,0,0,0,0,0,0,0,0,0,0,0,0,0,0,0,0,0,0,0,0,0,0,0,0,0,0,0,0,0,0,0,0,0,0,0,0,0,0,0,0,0,0,0,0,0,0,0,0,0,0,0,0,0,0,0,0,0,0,0,0,0,0,0,0,0,0,0,0,0,0,0,0,0,0,0,0,0,0,0,0,0,0,0,0,0,0,0,0,0,0,0,0,0,0,0,0,0,0,0,0,0,0,0,0,0,0,0,0,0,0,0,0,0,0,0,0,0,0,0,0,0,0,0,0,0,0,0,0,0,0,0,0,0,0,0,0,0,0,0,0,0,0,0,0,0],"trees":[{"base_weights":[5.377134E-1,6.0303265E-1,-3.6371596E0,6.442317E-1,-4.4544344E0,-2.0282557E0,-5.390787E-2,7.0194286E-1,-2.519772E0,-5.390787E-2,6.893292E-3,-3.5268025E0,-1.6048805E-1,9.255331E-1,1.105994E-1,-3.9672337E0,-5.243205E-1,-4.8631556E-2,6.893292E-3,-1.0660381E-2,6.267756E-3,9.590008E-1,-9.8404E-1,2.3342621E-1,-4.26852E0,-4.6262207E0,6.893292E-3,4.6609172E-1,-3.682315E-2,9.829465E-1,-1.594775E0,-4.7005948E-2,4.8229918E-1,-5.2981496E-1,7.598972E-1,6.893292E-3,-5.2929133E-2,-5.4582365E-2,-1.6866733E-4,-2.0996985E-1,9.600722E-3,9.994718E-3,-2.3607042E-2,-4.2082522E-2,1.2185589E-3,-1.2744303E-2,1.0646068E-2,-2.5595697E-3,-5.242634E-2,8.408498E-3,-2.5872642E-2,-8.389821E-3,6.893292E-3],"categories":[],"categories_nodes":[],"categories_segments":[],"categories_sizes":[],"default_left":[0,0,0,0,0,0,0,0,0,0,0,0,0,0,0,0,0,0,0,0,0,0,0,0,0,0,0,0,0,0,0,0,0,0,0,0,0,0,0,0,0,0,0,0,0,0,0,0,0,0,0,0,0],"id":0,"left_children":[1,3,5,7,9,11,-1,13,15,-1,-1,17,19,21,23,25,27,-1,-1,-1,-1,29,31,33,35,37,-1,39,-1,41,43,-1,45,47,49,-1,-1,-1,-1,51,-1,-1,-1,-1,-1,-1,-1,-1,-1,-1,-1,-1,-1],"loss_changes":[3.264551E2,2.46992E2,4.114879E1,2.1413596E2,4.99218E1,3.0866959E1,0E0,1.5102051E2,5.8723602E1,0E0,0E0,3.819088E1,4.9790854E0,5.3940063E1,1.702812E2,4.016194E1,3.3001858E1,0E0,0E0,0E0,0E0,5.143518E1,8.2796875E1,1.2379935E2,4.75224E1,4.0884415E1,0E0,3.0410042E0,0E0,4.7033752E1,3.620919E1,0E0,1.3123977E1,1.612099E2,5.152977E1,0E0,0E0,0E0,0E0,3.0730014E0,0E0,0E0,0E0,0E0,0E0,0E0,0E0,0E0,0E0,0E0,0E0,0E0,0E0],"parents":[2147483647,0,0,1,1,2,2,3,3,4,4,5,5,7,7,8,8,11,11,12,12,13,13,14,14,15,15,16,16,21,21,22,22,23,23,24,24,25,25,27,27,29,29,30,30,32,32,33,33,34,34,39,39],"right_children":[2,4,6,8,10,12,-1,14,16,-1,-1,18,20,22,24,26,28,-1,-1,-1,-1,30,32,34,36,38,-1,40,-1,42,44,-1,46,48,50,-1,-1,-1,-1,52,-1,-1,-1,-1,-1,-1,-1,-1,-1,-1,-1,-1,-1],"split_conditions":[9.993535E-1,1E0,-3.5867676E-1,1E0,3.2873766E0,5.0821397E-3,-5.390787E-2,2.4742982E-1,5.0821397E-3,-5.390787E-2,6.893292E-3,-3.9892626E-1,-7.8033376E-1,1E0,1.7952821E0,4.089857E0,-6.5621865E-1,-4.8631556E-2,6.893292E-3,-1.0660381E-2,6.267756E-3,1E0,4.469352E-1,5.0821397E-3,-1.3237842E0,4.1878104E-1,6.893292E-3,9.6855754E-1,-3.682315E-2,1E0,5.0821397E-3,-4.7005948E-2,3.3463622E-3,6.4650044E-4,9.312677E-1,6.893292E-3,-5.2929133E-2,-5.4582365E-2,-1.6866733E-4,4.1878104E-1,9.600722E-3,9.994718E-3,-2.3607042E-2,-4.2082522E-2,1.2185589E-3,-1.2744303E-2,1.0646068E-2,-2.5595697E-3,-5.242634E-2,8.408498E-3,-2.5872642E-2,-8.389821E-3,6.893292E-3],"split_indices":[33,34,4,17,10,42,0,9,42,0,0,4,4,29,5,15,3,0,0,0,0,32,2,42,10,5,0,4,0,27,42,0,18,35,13,0,0,0,0,5,0,0,0,0,0,0,0,0,0,0,0,0,0],"split_type":[0,0,0,0,0,0,0,0,0,0,0,0,0,0,0,0,0,0,0,0,0,0,0,0,0,0,0,0,0,0,0,0,0,0,0,0,0,0,0,0,0,0,0,0,0,0,0,0,0,0,0,0,0],"sum_hessian":[1.1880817E3,1.170622E3,1.7459753E1,1.1620284E3,8.5934725E0,1.0230324E1,7.229429E0,1.141977E3,2.0051435E1,7.229429E0,1.3640432E0,5.1833644E0,5.04696E0,8.282471E2,3.1372995E2,1.104875E1,9.002686E0,3.819321E0,1.3640432E0,2.1824691E0,2.8644907E0,8.144702E2,1.3776836E1,3.060913E2,7.638642E0,9.684707E0,1.3640432E0,7.502238E0,1.5004475E0,8.075136E2,6.95662E0,3.2737036E0,1.0503133E1,1.2494636E2,1.8114494E2,1.3640432E0,6.2745986E0,8.047855E0,1.6368519E0,3.410108E0,4.0921297E0,8.0423987E2,3.2737038E0,2.1824691E0,4.7741513E0,2.3188734E0,8.184259E0,1.1908097E2,5.865386E0,1.7759843E2,3.5465124E0,2.0460649E0,1.3640432E0],"tree_param":{"num_deleted":"0","num_feature":"43","num_nodes":"53","size_leaf_vector":"1"}},{"base_weights":[5.2422166E-1,8.493594E-1,-3.1680065E-1,8.7359446E-1,-3.0410886E0,-1.4017085E0,4.929215E-1,8.969701E-1,-2.9927785E0,-4.4396687E-2,6.872019E-3,-1.063105E0,-5.336427E-2,6.554466E-1,-3.7412646E0,9.307809E-1,-1.7681967E0,-4.4439815E-2,6.8895295E-3,-1.9160304E0,2.1465792E-1,7.166469E-1,-3.6931098E-2,6.9734687E-3,-4.9370363E-2,9.619405E-1,-8.7618315E-1,-4.1578314E-1,-4.2982515E-2,-1.2534733E0,-4.04932E0,5.768762E-1,-3.0946746E0,7.68745E-1,-3.5482403E-2,1.0317273E0,2.032485E-1,-4.5948185E-2,7.235713E-1,5.9795076E-1,-1.7286139E0,-2.4330697E0,-3.4557515E-1,-3.7756225E-1,-4.9234805E0,9.773372E-1,-6.9773674E-1,3.1817667E-3,-4.49096E-2,8.9786035E-1,-1.0134955E-1,8.221216E-3,1.1446987E-2,4.5792437E-3,-2.2652358E-2,-5.7896744E-3,1.0619352E-2,8.723488E-3,-1.4724694E-4,-3.302238E-2,3.4239043E-3,-5.00034E-2,-1.6033132E-2,-4.223984E-2,5.38588E-4,-1.0480989E-2,6.9012004E-3,-1.7713053E-2,-5.513411E-2,1.0503488E-2,-3.1309258E-3,6.875684E-3,-2.8495563E-2,9.979963E-3,-2.8747965E-3,4.9785054E-3,-2.6921932E-2],"categories":[],"categories_nodes":[],"categories_segments":[],"categories_sizes":[],"default_left":[0,0,0,0,0,0,0,0,0,0,0,0,0,0,0,0,0,0,0,0,0,0,0,0,0,0,0,0,0,0,0,0,0,0,0,0,0,0,0,0,0,0,0,0,0,0,0,0,0,0,0,0,0,0,0,0,0,0,0,0,0,0,0,0,0,0,0,0,0,0,0,0,0,0,0,0,0],"id":1,"left_children":[1,3,5,7,9,11,13,15,17,-1,-1,19,-1,21,23,25,27,-1,-1,29,31,33,-1,-1,-1,35,37,39,-1,41,43,45,47,49,-1,51,53,-1,55,57,59,61,63,65,67,69,71,-1,-1,73,75,-1,-1,-1,-1,-1,-1,-1,-1,-1,-1,-1,-1,-1,-1,-1,-1,-1,-1,-1,-1,-1,-1,-1,-1,-1,-1],"loss_changes":[3.2141727E2,8.25412E1,2.8898364E2,7.885559E1,3.156496E1,1.8153561E2,1.3228067E2,7.7204346E1,3.1354874E1,0E0,0E0,1.4277597E2,0E0,5.1225777E1,4.124819E1,4.749945E1,3.533462E1,0E0,0E0,1.0579138E2,6.554518E1,4.2909225E1,0E0,0E0,0E0,4.2946106E1,9.000332E1,1.19160185E1,0E0,6.480711E1,5.636499E1,2.5583988E1,2.7183952E1,2.025431E1,0E0,1.6727966E1,4.4983116E1,0E0,5.4856677E0,9.1345966E-1,1.3579595E1,4.842189E1,5.5693924E1,3.9959927E0,1.732544E1,3.8656807E0,3.8466087E1,0E0,0E0,1.8849686E1,3.8739384E1,0E0,0E0,0E0,0E0,0E0,0E0,0E0,0E0,0E0,0E0,0E0,0E0,0E0,0E0,0E0,0E0,0E0,0E0,0E0,0E0,0E0,0E0,0E0,0E0,0E0,0E0],"parents":[2147483647,0,0,1,1,2,2,3,3,4,4,5,5,6,6,7,7,8,8,11,11,13,13,14,14,15,15,16,16,19,19,20,20,21,21,25,25,26,26,27,27,29,29,30,30,31,31,32,32,33,33,35,35,36,36,38,38,39,39,40,40,41,41,42,42,43,43,44,44,45,45,46,46,49,49,50,50],"right_children":[2,4,6,8,10,12,14,16,18,-1,-1,20,-1,22,24,26,28,-1,-1,30,32,34,-1,-1,-1,36,38,40,-1,42,44,46,48,50,-1,52,54,-1,56,58,60,62,64,66,68,70,72,-1,-1,74,76,-1,-1,-1,-1,-1,-1,-1,-1,-1,-1,-1,-1,-1,-1,-1,-1,-1,-1,-1,-1,-1,-1,-1,-1,-1,-1],"split_conditions":[2.4742982E-1,1E0,5.0821397E-3,1E0,3.2873766E0,6.4650044E-4,9.312677E-1,1E0,-8.97181E-1,-4.4396687E-2,6.872019E-3,3.3463622E-3,-5.336427E-2,1.7952821E0,5.947979E-1,9.9147534E-1,1.5838104E-1,-4.4439815E-2,6.8895295E-3,9.3107843E-1,4.6699032E-1,9.966536E-1,-3.6931098E-2,6.9734687E-3,-4.9370363E-2,1.1535263E0,4.469352E-1,-3.6765823E-1,-4.2982515E-2,-1.5924369E-1,-2.360161E0,6.513672E-1,-1.1780574E0,1.1433736E0,-3.5482403E-2,5.0821397E-3,7.4335283E-1,-4.5948185E-2,3.3463622E-3,-1.0352589E0,4.1878104E-1,5.0821397E-3,-1.5288521E0,9.6954405E-1,-1.2566789E0,1.3638245E0,-1.0139732E0,3.1817667E-3,-4.49096E-2,9.512164E-1,1.5002766E-1,8.221216E-3,1.1446987E-2,4.5792437E-3,-2.2652358E-2,-5.7896744E-3,1.0619352E-2,8.723488E-3,-1.4724694E-4,-3.302238E-2,3.4239043E-3,-5.00034E-2,-1.6033132E-2,-4.223984E-2,5.38588E-4,-1.0480989E-2,6.9012004E-3,-1.7713053E-2,-5.513411E-2,1.0503488E-2,-3.1309258E-3,6.875684E-3,-2.8495563E-2,9.979963E-3,-2.8747965E-3,4.9785054E-3,-2.6921932E-2],"split_indices":[9,34,42,32,10,35,13,33,9,0,0,18,0,5,42,29,8,0,0,24,14,29,0,0,0,6,2,14,0,2,12,39,10,6,0,42,35,0,18,5,5,39,6,2,8,10,8,0,0,26,0,0,0,0,0,0,0,0,0,0,0,0,0,0,0,0,0,0,0,0,0,0,0,0,0,0,0],"split_type":[0,0,0,0,0,0,0,0,0,0,0,0,0,0,0,0,0,0,0,0,0,0,0,0,0,0,0,0,0,0,0,0,0,0,0,0,0,0,0,0,0,0,0,0,0,0,0,0,0,0,0,0,0,0,0,0,0,0,0,0,0,0,0,0,0,0,0,0,0,0,0,0,0,0,0,0,0],"sum_hessian":[1.1734392E3,8.4626483E2,3.2717444E2,8.417964E2,4.468411E0,1.3951453E2,1.8765991E2,8.37501E2,4.2954326E0,3.1107E0,1.3577111E0,1.2962941E2,9.885115E0,1.8153699E2,6.1229177E0,8.27652E2,9.848985E0,2.9325094E0,1.3629231E0,7.743854E1,5.219087E1,1.7984116E2,1.6958333E0,1.3879137E0,4.735004E0,8.140815E2,1.3570524E1,7.1769567E0,2.6720276E0,6.0298584E1,1.7139956E1,4.7786182E1,4.404687E0,1.7848067E2,1.3604951E0,7.451779E2,6.890356E1,3.5188172E0,1.0051706E1,4.357072E0,2.8198848E0,2.5494581E1,3.4804005E1,3.5712898E0,1.3568665E1,3.6539383E1,1.1246802E1,1.5030369E0,2.90165E0,1.5539006E2,2.3090607E1,2.6387152E2,4.813064E2,6.3197865E1,5.7056923E0,1.9260931E0,8.125613E0,2.7165701E0,1.640502E0,1.2645347E0,1.55535E0,4.9995813E0,2.0495E1,2.3557084E0,3.2448296E1,2.2048926E0,1.3663971E0,2.7700458E0,1.0798619E1,3.47588E1,1.7805805E0,7.2559896E0,3.9908125E0,1.4343121E2,1.1958839E1,1.9409496E1,3.6811097E0],"tree_param":{"num_deleted":"0","num_feature":"43","num_nodes":"77","size_leaf_vector":"1"}},{"base_weights":[5.1536804E-1,8.366365E-1,-3.121258E-1,8.666462E-1,-4.5362666E-2,4.5683587E-1,-1.2517462E0,9.019856E-1,-1.7965448E0,6.338108E-1,-3.671041E0,-9.3374234E-1,-5.102059E-2,1.1034999E0,5.6443506E-1,-6.8257856E-1,-4.0476102E-2,7.044443E-1,-3.7187025E-2,-4.7849577E-2,6.9518066E-3,-1.6381512E0,-5.3638253E-2,1.115009E0,-1.062308E-2,6.287892E-1,-2.286437E0,3.9274257E-1,-1.3241192E0,2.423185E-1,1.0813855E0,-1.6858648E-1,-2.3950999E0,3.2007813E-1,-4.6273973E-2,-3.035238E-4,1.1187485E0,8.326555E-1,-1.15311235E-1,-4.168141E-2,-3.8435143E-1,6.8724738E-3,-2.058126E-4,-2.1715631E0,7.0502246E-3,3.8068745E-1,-3.795294E-2,1.1421741E0,3.5062706E-1,-4.236912E-2,4.3771404E-1,-2.943334E0,5.8677584E-1,4.7623453E-1,-3.375429E-2,1.1225115E-2,-2.9629882E-4,9.2069935E-3,-1.2180195E-3,7.5971233E-3,-2.2184823E-2,-1.0535672E-2,6.868444E-3,-3.759707E-2,6.8470733E-3,-1.461045E-3,1.1528071E-2,3.098949E-3,1.1532619E-2,-1.0808521E-2,1.004695E-2,9.608079E-3,-9.357115E-3,-1.8880486E-2,-4.789045E-2,-5.6134984E-3,1.0155207E-2,6.442835E-3,-1.9114373E-2],"categories":[],"categories_nodes":[],"categories_segments":[],"categories_sizes":[],"default_left":[0,0,0,0,0,0,0,0,0,0,0,0,0,0,0,0,0,0,0,0,0,0,0,0,0,0,0,0,0,0,0,0,0,0,0,0,0,0,0,0,0,0,0,0,0,0,0,0,0,0,0,0,0,0,0,0,0,0,0,0,0,0,0,0,0,0,0,0,0,0,0,0,0,0,0,0,0,0,0],"id":2,"left_children":[1,3,5,7,-1,9,11,13,15,17,19,21,-1,23,25,27,-1,29,-1,-1,-1,31,33,35,-1,37,39,41,43,45,47,49,51,53,-1,-1,55,57,59,-1,61,-1,-1,63,-1,65,-1,67,69,-1,71,73,75,77,-1,-1,-1,-1,-1,-1,-1,-1,-1,-1,-1,-1,-1,-1,-1,-1,-1,-1,-1,-1,-1,-1,-1,-1,-1],"loss_changes":[3.041133E2,1.367254E2,2.3205157E2,7.8781006E1,0E0,1.3157156E2,1.7210747E2,5.445923E1,2.4998497E1,5.503653E1,3.9416687E1,8.339342E1,0E0,1.3797668E1,5.7350594E1,6.458895E0,0E0,2.9109993E1,0E0,0E0,0E0,8.275862E1,1.05571625E2,2.1919556E0,0E0,4.542556E1,2.3249233E1,4.9959737E-1,1.1196223E1,4.4484352E1,3.7120438E0,6.7200615E1,8.226941E1,3.4634956E1,0E0,0E0,2.2034912E0,1.9832932E1,1.21565475E2,0E0,3.9886086E0,0E0,0E0,2.1671167E1,0E0,3.0834711E1,0E0,4.272461E-1,9.093752E0,0E0,1.8114355E1,7.234122E1,4.7469654E0,2.3616346E1,0E0,0E0,0E0,0E0,0E0,0E0,0E0,0E0,0E0,0E0,0E0,0E0,0E0,0E0,0E0,0E0,0E0,0E0,0E0,0E0,0E0,0E0,0E0,0E0,0E0],"parents":[2147483647,0,0,1,1,2,2,3,3,5,5,6,6,7,7,8,8,9,9,10,10,11,11,13,13,14,14,15,15,17,17,21,21,22,22,23,23,25,25,26,26,27,27,28,28,29,29,30,30,31,31,32,32,33,33,36,36,37,37,38,38,40,40,43,43,45,45,47,47,48,48,50,50,51,51,52,52,53,53],"right_children":[2,4,6,8,-1,10,12,14,16,18,20,22,-1,24,26,28,-1,30,-1,-1,-1,32,34,36,-1,38,40,42,44,46,48,50,52,54,-1,-1,56,58,60,-1,62,-1,-1,64,-1,66,-1,68,70,-1,72,74,76,78,-1,-1,-1,-1,-1,-1,-1,-1,-1,-1,-1,-1,-1,-1,-1,-1,-1,-1,-1,-1,-1,-1,-1,-1,-1],"split_conditions":[2.4742982E-1,1E0,9.947462E-1,1E0,-4.5362666E-2,9.126299E-1,6.4650044E-4,9.9491787E-1,1.5838104E-1,1.7952821E0,2.7108993E-3,3.0274042E-1,-5.102059E-2,9.823305E-1,7.5324625E-1,-7.1778613E-1,-4.0476102E-2,1.1201114E-3,-3.7187025E-2,-4.7849577E-2,6.9518066E-3,-6.253649E-1,8.1228286E-1,-1.6251189E0,-1.062308E-2,-7.166472E-2,2.2914232E-1,-1.0749451E0,1.4238204E0,1.1167582E0,1.098114E0,-6.323958E-1,2.3752358E-4,4.1878104E-1,-4.6273973E-2,-3.035238E-4,9.947E-1,9.8046273E-1,9.493068E-1,-4.168141E-2,1.5729253E0,6.8724738E-3,-2.058126E-4,1.5031904E-1,7.0502246E-3,7.5343633E-3,-3.795294E-2,-1.5772408E0,8.277093E-1,-4.236912E-2,3.1300518E-1,1.8448223E-1,1.9537276E-2,9.722887E-1,-3.375429E-2,1.1225115E-2,-2.9629882E-4,9.2069935E-3,-1.2180195E-3,7.5971233E-3,-2.2184823E-2,-1.0535672E-2,6.868444E-3,-3.759707E-2,6.8470733E-3,-1.461045E-3,1.1528071E-2,3.098949E-3,1.1532619E-2,-1.0808521E-2,1.004695E-2,9.608079E-3,-9.357115E-3,-1.8880486E-2,-4.789045E-2,-5.6134984E-3,1.0155207E-2,6.442835E-3,-1.9114373E-2],"split_indices":[9,32,41,33,0,13,35,41,8,5,40,9,0,27,17,15,0,31,0,0,0,13,3,8,0,13,15,1,1,1,3,2,37,5,0,0,20,35,40,0,1,0,0,8,0,41,0,1,2,0,12,1,38,13,0,0,0,0,0,0,0,0,0,0,0,0,0,0,0,0,0,0,0,0,0,0,0,0,0],"split_type":[0,0,0,0,0,0,0,0,0,0,0,0,0,0,0,0,0,0,0,0,0,0,0,0,0,0,0,0,0,0,0,0,0,0,0,0,0,0,0,0,0,0,0,0,0,0,0,0,0,0,0,0,0,0,0,0,0,0,0,0,0,0,0,0,0,0,0,0,0,0,0,0,0,0,0,0,0,0,0],"sum_hessian":[1.1419563E3,8.225833E2,3.1937296E2,8.188484E2,3.7348835E0,1.7591905E2,1.4345392E2,8.087776E2,1.0070818E1,1.6949858E2,6.4204764E0,1.3365742E2,9.796483E0,5.0501782E2,3.0375977E2,7.608759E0,2.4620588E0,1.6761661E2,1.8819634E0,5.039013E0,1.3814639E0,7.376046E1,5.9896965E1,5.0283096E2,2.186844E0,2.9781644E2,5.94332E0,2.9880836E0,4.6206756E0,7.6037865E1,9.157874E1,2.5492064E1,4.82684E1,5.623231E1,3.6646562E0,1.6132634E0,5.012177E2,2.3367572E2,6.414073E1,2.388782E0,3.5545378E0,1.3578464E0,1.6302371E0,3.209911E0,1.4107645E0,7.43941E1,1.6437701E0,8.402598E1,7.5527678E0,2.5296652E0,2.2962399E1,4.0783123E1,7.4852767E0,5.478832E1,1.4439896E0,4.9960318E2,1.61452E0,2.1397313E2,1.9702581E1,4.5746635E1,1.8394094E1,2.1978908E0,1.3566471E0,1.8596234E0,1.3502877E0,4.4704475E1,2.9689621E1,1.4852889E0,8.254069E1,2.164055E0,5.3887124E0,1.6846525E1,6.1158724E0,2.7234652E1,1.3548472E1,1.9511232E0,5.5341535E0,5.1867916E1,2.920403E0],"tree_param":{"num_deleted":"0","num_feature":"43","num_nodes":"79","size_leaf_vector":"1"}},{"base_weights":[5.013221E-1,8.2262236E-1,-3.3126843E-1,8.4681255E-1,-2.9766202E0,4.955008E-1,-1.3424574E0,8.8225E-1,-1.8193494E0,6.816336E-3,-4.3054223E-2,6.5337175E-1,-4.5210503E-2,-1.0180095E0,-4.938613E-2,9.1467404E-1,-1.3698242E0,-7.5843173E-1,-3.944522E-2,7.425854E-1,-1.8876265E0,-1.794416E0,1.4368774E-1,9.288481E-1,-3.7975717E-2,-1.4166592E-2,-4.236847E-2,6.209796E-3,-1.5218227E0,8.054755E-1,-1.9270041E0,-3.9136264E-2,-2.827438E-2,-2.758123E0,-7.9076916E-1,3.6632144E-1,-3.8603645E-2,9.4498783E-1,-2.2894995E0,-2.8678231E-2,6.854163E-1,-2.365156E0,7.0281886E-3,9.2798334E-1,-3.8319986E-2,7.1027144E-3,-3.536128E-2,6.841115E-3,-5.94723E-3,-3.1703248E0,3.0596852E-1,-3.3811343E-1,-4.4832405E-2,5.183383E-1,-3.24222E-2,1.10535305E-2,6.60338E-3,6.9638668E-3,-3.9170485E-2,8.646753E-3,-3.1420533E-4,6.8512983E-3,-3.874167E-2,9.725038E-3,-1.271802E-2,-4.0041473E-2,5.3797965E-3,-5.2705526E-2,-2.1008002E-2,8.85551E-3,-5.3129327E-3,-1.2872975E-2,5.117591E-3,6.5954267E-3,-3.0238943E-2],"categories":[],"categories_nodes":[],"categories_segments":[],"categories_sizes":[],"default_left":[0,0,0,0,0,0,0,0,0,0,0,0,0,0,0,0,0,0,0,0,0,0,0,0,0,0,0,0,0,0,0,0,0,0,0,0,0,0,0,0,0,0,0,0,0,0,0,0,0,0,0,0,0,0,0,0,0,0,0,0,0,0,0,0,0,0,0,0,0,0,0,0,0,0,0],"id":3,"left_children":[1,3,5,7,9,11,13,15,17,-1,-1,19,-1,21,-1,23,25,27,-1,29,31,33,35,37,-1,39,-1,-1,41,43,45,-1,47,49,51,53,-1,55,57,-1,59,61,-1,63,65,-1,-1,-1,-1,67,69,71,-1,73,-1,-1,-1,-1,-1,-1,-1,-1,-1,-1,-1,-1,-1,-1,-1,-1,-1,-1,-1,-1,-1],"loss_changes":[3.121973E2,7.987042E1,2.7269897E2,8.069464E1,2.989603E1,1.4531091E2,1.6606747E2,6.1625427E1,2.2501041E1,0E0,0E0,4.1104652E1,0E0,1.2271097E2,0E0,5.8005615E1,4.7104706E1,1.0190479E1,0E0,3.0079712E1,2.3331266E1,7.660065E1,5.0722607E1,4.4445374E1,0E0,2.0416975E1,0E0,0E0,1.28097E1,1.7268867E1,2.0358753E1,0E0,2.1227374E0,5.2944275E1,6.7515305E1,3.092605E1,0E0,3.6274536E1,2.3886505E1,0E0,1.084698E0,2.3540297E1,0E0,1.549781E1,5.2654877E1,0E0,0E0,0E0,0E0,7.0599304E1,3.2808466E0,3.1209883E1,0E0,2.8013826E1,0E0,0E0,0E0,0E0,0E0,0E0,0E0,0E0,0E0,0E0,0E0,0E0,0E0,0E0,0E0,0E0,0E0,0E0,0E0,0E0,0E0],"parents":[2147483647,0,0,1,1,2,2,3,3,4,4,5,5,6,6,7,7,8,8,11,11,13,13,15,15,16,16,17,17,19,19,20,20,21,21,22,22,23,23,25,25,28,28,29,29,30,30,32,32,33,33,34,34,35,35,37,37,38,38,40,40,41,41,43,43,44,44,49,49,50,50,51,51,53,53],"right_children":[2,4,6,8,10,12,14,16,18,-1,-1,20,-1,22,-1,24,26,28,-1,30,32,34,36,38,-1,40,-1,-1,42,44,46,-1,48,50,52,54,-1,56,58,-1,60,62,-1,64,66,-1,-1,-1,-1,68,70,72,-1,74,-1,-1,-1,-1,-1,-1,-1,-1,-1,-1,-1,-1,-1,-1,-1,-1,-1,-1,-1,-1,-1],"split_conditions":[2.4742982E-1,1E0,9.947462E-1,1E0,-1.6450065E0,9.312677E-1,6.4650044E-4,1E0,1.5838104E-1,6.816336E-3,-4.3054223E-2,8.220483E-1,-4.5210503E-2,3.3463622E-3,-4.938613E-2,2.580015E0,-6.1095613E-1,-1.3410581E0,-3.944522E-2,1.3230635E0,2.7815512E-1,-4.006078E-2,8.2677525E-1,1E0,-3.7975717E-2,-4.006078E-2,-4.236847E-2,6.209796E-3,1.443071E0,3.6310175E-1,-1.0546192E0,-3.9136264E-2,-1.0352589E0,2.4235175E0,3.6442095E-1,8.5345966E-1,-3.8603645E-2,9.9491787E-1,-2.2600482E0,-2.8678231E-2,-2.6402962E-1,-4.9745092E-1,7.0281886E-3,1.4613509E0,6.686052E-1,7.1027144E-3,-3.536128E-2,6.841115E-3,-5.94723E-3,-3.3400282E-1,-1.2365235E0,8.985306E-2,-4.4832405E-2,8.528218E-1,-3.24222E-2,1.10535305E-2,6.60338E-3,6.9638668E-3,-3.9170485E-2,8.646753E-3,-3.1420533E-4,6.8512983E-3,-3.874167E-2,9.725038E-3,-1.271802E-2,-4.0041473E-2,5.3797965E-3,-5.2705526E-2,-2.1008002E-2,8.85551E-3,-5.3129327E-3,-1.2872975E-2,5.117591E-3,6.5954267E-3,-3.0238943E-2],"split_indices":[9,34,41,33,4,13,35,17,8,0,0,7,0,18,0,11,13,11,0,5,3,2,13,27,0,2,0,0,1,4,7,0,5,10,10,2,0,41,5,0,7,7,0,1,4,0,0,0,0,1,1,7,0,33,0,0,0,0,0,0,0,0,0,0,0,0,0,0,0,0,0,0,0,0,0],"split_type":[0,0,0,0,0,0,0,0,0,0,0,0,0,0,0,0,0,0,0,0,0,0,0,0,0,0,0,0,0,0,0,0,0,0,0,0,0,0,0,0,0,0,0,0,0,0,0,0,0,0,0,0,0,0,0,0,0,0,0,0,0,0,0,0,0,0,0,0,0,0,0,0,0,0,0],"sum_hessian":[1.1650236E3,8.40632E2,3.243915E2,8.360857E2,4.5463443E0,1.7875098E2,1.4564055E2,8.2577893E2,1.0306803E1,1.3411438E0,3.2052002E0,1.7414052E2,4.610449E0,1.3476503E2,1.0875517E1,8.14644E2,1.1134896E1,7.7798615E0,2.5269418E0,1.6891763E2,5.2228894E0,8.045156E1,5.4313473E1,8.1300146E2,1.6425575E0,8.242441E0,2.8924556E0,2.8380997E0,4.9417615E0,1.6571208E2,3.2055583E0,1.9707134E0,3.2521758E0,4.015062E1,4.030094E1,5.231326E1,2.0002143E0,8.096475E2,3.3539376E0,1.0126055E0,7.229835E0,3.5375564E0,1.4042051E0,1.4461598E2,2.109609E1,1.4263833E0,1.779175E0,1.348515E0,1.9036608E0,3.5359196E1,4.7914243E0,3.6872368E1,3.4285717E0,5.1020287E1,1.2929716E0,5.1603937E2,2.9360812E2,1.3850547E0,1.9688829E0,5.618566E0,1.6112691E0,1.3515449E0,2.1860116E0,1.4229407E2,2.3219156E0,1.9219676E0,1.9174122E1,1.0605403E1,2.4753794E1,2.7973344E0,1.9940896E0,1.7175327E1,1.969704E1,4.9847034E1,1.1732508E0],"tree_param":{"num_deleted":"0","num_feature":"43","num_nodes":"75","size_leaf_vector":"1"}},{"base_weights":[5.066096E-1,5.757129E-1,-3.695506E0,-2.5695074E-2,9.400158E-1,3.1941726E-3,-4.064153E0,4.7499362E-1,-1.1658852E0,9.711209E-1,-1.3514179E0,-4.5004334E0,3.1616176E-3,8.231832E-1,-6.8378025E-1,-2.351275E0,-1.2207332E-1,9.8601425E-1,-1.9334437E0,2.0254727E-1,-4.0923614E-2,-4.994703E-2,-2.2560177E0,9.295986E-1,-8.464146E-1,-1.5606965E0,5.7446146E-1,-2.9890258E0,1.0743378E-2,1.1506109E-2,-9.96914E-1,1.0227572E0,3.6828257E-2,6.771422E-3,-3.547668E-2,-1.0390651E-2,9.547868E-3,-5.0201244E-3,-3.4233484E-2,9.948194E-1,2.6831874E-1,-4.439809E-2,4.7121516E-1,-4.77414E-2,-8.5491705E-1,1.116865E-2,-6.154005E-2,-4.847912E-1,-3.7921739E0,-2.404472E0,9.860112E-2,1.0326592E0,-1.2677529E0,-3.1899295E0,9.9533695E-1,3.5043808E-3,1.0636764E-2,-3.8256202E-2,8.148696E-3,1.03475815E-2,-5.5584065E-3,-2.3302568E-2,4.249221E-3,6.6517186E-3,-1.3082687E-2,-3.7869237E-2,3.4381438E-3,-4.649548E-2,-1.866397E-2,-5.103393E-2,-2.2731551E-3,5.7568583E-3,-3.824161E-2,8.927317E-3,1.1830634E-2,-2.8908437E-2,6.7589646E-3,-4.331163E-2,6.7589646E-3,1.1277129E-2,-2.6199543E-3],"categories":[],"categories_nodes":[],"categories_segments":[],"categories_sizes":[],"default_left":[0,0,0,0,0,0,0,0,0,0,0,0,0,0,0,0,0,0,0,0,0,0,0,0,0,0,0,0,0,0,0,0,0,0,0,0,0,0,0,0,0,0,0,0,0,0,0,0,0,0,0,0,0,0,0,0,0,0,0,0,0,0,0,0,0,0,0,0,0,0,0,0,0,0,0,0,0,0,0,0,0],"id":4,"left_children":[1,3,5,7,9,-1,11,13,15,17,19,21,-1,23,25,27,29,31,33,35,-1,-1,37,39,41,43,45,47,-1,-1,49,51,53,-1,-1,-1,-1,-1,-1,55,57,-1,59,-1,61,-1,63,65,67,69,71,73,75,77,79,-1,-1,-1,-1,-1,-1,-1,-1,-1,-1,-1,-1,-1,-1,-1,-1,-1,-1,-1,-1,-1,-1,-1,-1,-1,-1],"loss_changes":[3.3651807E2,2.4843268E2,2.907309E1,2.4528119E2,5.1640747E1,0E0,3.4408295E1,1.2103526E2,1.6192093E2,3.206787E1,4.2889286E1,6.218109E0,0E0,4.1660416E1,7.762093E1,1.3719855E2,7.993725E1,2.41781E1,1.8814514E1,7.7680297E0,0E0,0E0,7.8403206E0,9.0811E0,6.983579E1,8.94649E1,1.017279E1,1.0268469E2,0E0,0E0,6.57313E1,1.6469482E1,8.641552E1,0E0,0E0,0E0,0E0,0E0,0E0,8.364471E0,4.971948E1,0E0,7.157743E0,0E0,6.714683E1,0E0,1.3943463E1,3.896913E1,5.604944E1,1.0830166E2,4.8698353E1,1.2962402E1,1.2446848E1,3.1169922E1,3.8759365E0,0E0,0E0,0E0,0E0,0E0,0E0,0E0,0E0,0E0,0E0,0E0,0E0,0E0,0E0,0E0,0E0,0E0,0E0,0E0,0E0,0E0,0E0,0E0,0E0,0E0,0E0],"parents":[2147483647,0,0,1,1,2,2,3,3,4,4,6,6,7,7,8,8,9,9,10,10,11,11,13,13,14,14,15,15,16,16,17,17,18,18,19,19,22,22,23,23,24,24,25,25,26,26,27,27,30,30,31,31,32,32,39,39,40,40,42,42,44,44,46,46,47,47,48,48,49,49,50,50,51,51,52,52,53,53,54,54],"right_children":[2,4,6,8,10,-1,12,14,16,18,20,22,-1,24,26,28,30,32,34,36,-1,-1,38,40,42,44,46,48,-1,-1,50,52,54,-1,-1,-1,-1,-1,-1,56,58,-1,60,-1,62,-1,64,66,68,70,72,74,76,78,80,-1,-1,-1,-1,-1,-1,-1,-1,-1,-1,-1,-1,-1,-1,-1,-1,-1,-1,-1,-1,-1,-1,-1,-1,-1,-1],"split_conditions":[1E0,5.0821397E-3,-1.6148217E0,-3.9237395E-1,9.966536E-1,3.1941726E-3,2.1802027E0,2.4742982E-1,2.307384E-3,1E0,-1.7301293E-1,3.0274042E-1,3.1616176E-3,5.2371633E-1,3.3463622E-3,1.8242482E-2,9.97405E-1,1.0265944E0,-2.360161E0,3.3463622E-3,-4.0923614E-2,-4.994703E-2,-5.453854E-1,1.1791139E0,8.8035065E-1,-3.76379E-1,8.37079E-1,-1.2224406E0,1.0743378E-2,1.1506109E-2,8.2677525E-1,1.8767717E0,2.7108993E-3,6.771422E-3,-3.547668E-2,-1.0390651E-2,9.547868E-3,-5.0201244E-3,-3.4233484E-2,2.7108993E-3,-7.625252E-1,-4.439809E-2,-6.6576284E-1,-4.77414E-2,1.1201114E-3,1.116865E-2,-6.5621865E-1,-1.5030869E0,1.1201114E-3,5.862021E-1,-9.619142E-2,7.5343633E-3,-5.399962E-1,2.0005336E0,-1.9491656E-1,3.5043808E-3,1.0636764E-2,-3.8256202E-2,8.148696E-3,1.03475815E-2,-5.5584065E-3,-2.3302568E-2,4.249221E-3,6.6517186E-3,-1.3082687E-2,-3.7869237E-2,3.4381438E-3,-4.649548E-2,-1.866397E-2,-5.103393E-2,-2.2731551E-3,5.7568583E-3,-3.824161E-2,8.927317E-3,1.1830634E-2,-2.8908437E-2,6.7589646E-3,-4.331163E-2,6.7589646E-3,1.1277129E-2,-2.6199543E-3],"split_indices":[33,42,0,16,29,0,0,9,36,27,9,9,0,0,18,33,36,13,12,18,0,0,10,3,4,1,18,1,0,0,13,10,40,0,0,0,0,0,0,40,0,0,12,0,31,0,3,1,31,0,4,41,14,0,4,0,0,0,0,0,0,0,0,0,0,0,0,0,0,0,0,0,0,0,0,0,0,0,0,0,0],"split_type":[0,0,0,0,0,0,0,0,0,0,0,0,0,0,0,0,0,0,0,0,0,0,0,0,0,0,0,0,0,0,0,0,0,0,0,0,0,0,0,0,0,0,0,0,0,0,0,0,0,0,0,0,0,0,0,0,0,0,0,0,0,0,0,0,0,0,0,0,0,0,0,0,0,0,0,0,0,0,0,0,0],"sum_hessian":[1.1505614E3,1.1327957E3,1.7765701E1,4.2768427E2,7.051114E2,1.5052804E0,1.626042E1,2.9758844E2,1.3009583E2,6.962365E2,8.874883E0,1.4762636E1,1.4977841E0,2.2905222E2,6.853624E1,6.0330166E1,6.9765656E1,6.933419E2,2.8946276E0,6.254836E0,2.620047E0,1.1094083E1,3.668553E0,2.1574449E2,1.3307721E1,4.0246532E1,2.8289707E1,5.09687E1,9.361465E0,2.8292133E1,4.147352E1,6.674283E2,2.591362E1,1.32779E0,1.5668377E0,2.2159667E0,4.0388694E0,2.0373416E0,1.6312116E0,1.9591716E2,1.9827326E1,2.9347177E0,1.0373003E1,6.209602E0,3.403693E1,1.4860283E1,1.3429424E1,1.2766394E1,3.820231E1,1.7628695E1,2.3844824E1,6.651022E2,2.3261075E0,5.40157E0,2.051205E1,1.9501965E1,1.7641519E2,1.6286154E0,1.819871E1,6.693046E0,3.6799572E0,1.5429624E1,1.8607306E1,8.778782E0,4.6506424E0,1.8447033E0,1.0921691E1,2.5455088E1,1.274722E1,7.2710466E0,1.0357647E1,2.2020006E1,1.8248192E0,3.4814438E2,3.169578E2,1.0020194E0,1.3240881E0,4.0774817E0,1.3240881E0,1.8651455E1,1.8605953E0],"tree_param":{"num_deleted":"0","num_feature":"43","num_nodes":"81","size_leaf_vector":"1"}},{"base_weights":[4.9365646E-1,-1.7151307E-1,9.2143285E-1,3.9566115E-1,-1.3495336E0,9.4667816E-1,-2.6087687E0,6.317851E-1,-2.1950412E0,-2.448533E0,-2.2166684E-1,1.0827208E0,5.567903E-1,1.4244516E-4,-3.8489E-2,8.6269635E-1,-6.334867E-1,-4.95543E-2,-5.015052E-1,-3.9633286E0,-1.450658E0,1.1469766E-2,-1.0202273E0,1.0955383E0,-5.8078116E-1,6.413156E-1,-3.92416E-2,9.7438794E-1,-4.5632252E-1,-2.563062E-1,-3.009967E0,4.8330706E-1,-4.0817145E-2,-6.5619504E-1,-4.4544625E0,-2.5224104E0,2.5619356E-2,-4.2836375E0,-3.7371144E-2,1.101067E0,-3.4774197E-3,-1.2921007E-2,6.7676296E-3,6.91771E-1,-3.1312104E-2,1.0332378E0,7.730061E-3,9.98962E-2,-3.5727177E-2,-1.4861556E0,1.8469292E-1,-4.2311754E-2,3.2864197E-3,-1.4113483E0,1.0049684E0,8.746149E-3,-2.9398672E-2,-4.776735E0,1.5091347E-4,-5.253971E-1,-3.5722587E0,4.0863493E-1,-3.143101E-2,-5.0182827E-2,-2.7490105E-4,-2.2048535E0,4.5486364E-1,1.108212E0,1.8461328E-2,7.5543654E-1,-2.0207443E0,-8.443362E-3,1.0558552E-2,-2.2644673E-2,8.873445E-3,5.704196E-3,-1.7205989E-2,-3.252796E-2,9.669133E-3,3.9136442E-3,-2.847991E-2,6.7560826E-3,-2.9769639E-2,3.017269E-3,1.0752916E-2,-5.1464338E-2,-2.740817E-3,5.887323E-3,-3.5011772E-2,-4.7604427E-2,-1.8107839E-2,-7.900342E-3,7.849563E-3,-4.119736E-2,-8.99181E-5,-3.2178465E-2,7.217559E-3,7.545317E-3,1.1338117E-2,7.0527666E-3,-5.4455814E-3,8.190706E-3,-1.3121183E-2,7.052449E-3,-3.550197E-2],"categories":[],"categories_nodes":[],"categories_segments":[],"categories_sizes":[],"default_left":[0,0,0,0,0,0,0,0,0,0,0,0,0,0,0,0,0,0,0,0,0,0,0,0,0,0,0,0,0,0,0,0,0,0,0,0,0,0,0,0,0,0,0,0,0,0,0,0,0,0,0,0,0,0,0,0,0,0,0,0,0,0,0,0,0,0,0,0,0,0,0,0,0,0,0,0,0,0,0,0,0,0,0,0,0,0,0,0,0,0,0,0,0,0,0,0,0,0,0,0,0,0,0,0,0],"id":5,"left_children":[1,3,5,7,9,11,13,15,17,19,21,23,25,-1,-1,27,29,-1,31,33,35,-1,37,39,41,43,-1,45,47,49,51,53,-1,55,57,59,61,63,65,67,-1,-1,-1,69,-1,71,73,75,-1,77,79,-1,-1,81,83,-1,-1,85,-1,87,89,91,-1,-1,-1,93,95,97,99,101,103,-1,-1,-1,-1,-1,-1,-1,-1,-1,-1,-1,-1,-1,-1,-1,-1,-1,-1,-1,-1,-1,-1,-1,-1,-1,-1,-1,-1,-1,-1,-1,-1,-1,-1],"loss_changes":[3.3020203E2,3.0442355E2,6.5395935E1,1.8966739E2,1.8295895E2,3.662152E1,1.7229168E1,8.318631E1,1.1874557E2,1.0743887E2,8.2224E1,1.1706665E1,7.205318E1,0E0,0E0,3.5746613E1,3.8874855E1,0E0,6.2563484E1,4.44411E1,7.3985634E1,0E0,1.5175739E2,4.4970093E0,5.0102353E0,3.6628586E1,0E0,1.2577545E1,3.39635E1,2.1570312E1,2.5711979E1,1.56228485E1,0E0,1.9852638E1,3.6395386E1,5.4895584E1,2.6336254E1,3.4113144E1,4.0915554E1,3.9542847E0,0E0,0E0,0E0,3.252217E1,0E0,9.746994E0,2.9397614E1,1.590681E1,0E0,4.8536327E1,1.9786636E1,0E0,0E0,1.3507904E1,2.6173687E-1,0E0,0E0,3.7748962E1,0E0,3.6882675E1,2.8165512E1,9.326275E0,0E0,0E0,0E0,2.9793705E1,3.3018166E1,3.7663574E0,2.0801165E0,2.4243034E1,2.0799206E1,0E0,0E0,0E0,0E0,0E0,0E0,0E0,0E0,0E0,0E0,0E0,0E0,0E0,0E0,0E0,0E0,0E0,0E0,0E0,0E0,0E0,0E0,0E0,0E0,0E0,0E0,0E0,0E0,0E0,0E0,0E0,0E0,0E0,0E0],"parents":[2147483647,0,0,1,1,2,2,3,3,4,4,5,5,6,6,7,7,8,8,9,9,10,10,11,11,12,12,15,15,16,16,18,18,19,19,20,20,22,22,23,23,24,24,25,25,27,27,28,28,29,29,30,30,31,31,33,33,34,34,35,35,36,36,37,37,38,38,39,39,43,43,45,45,46,46,47,47,49,49,50,50,53,53,54,54,57,57,59,59,60,60,61,61,65,65,66,66,67,67,68,68,69,69,70,70],"right_children":[2,4,6,8,10,12,14,16,18,20,22,24,26,-1,-1,28,30,-1,32,34,36,-1,38,40,42,44,-1,46,48,50,52,54,-1,56,58,60,62,64,66,68,-1,-1,-1,70,-1,72,74,76,-1,78,80,-1,-1,82,84,-1,-1,86,-1,88,90,92,-1,-1,-1,94,96,98,100,102,104,-1,-1,-1,-1,-1,-1,-1,-1,-1,-1,-1,-1,-1,-1,-1,-1,-1,-1,-1,-1,-1,-1,-1,-1,-1,-1,-1,-1,-1,-1,-1,-1,-1,-1],"split_conditions":[5.0821397E-3,-3.9237395E-1,9.993535E-1,3.211939E-1,2.307384E-3,2.4742982E-1,-1.376567E0,9.966536E-1,8.8035065E-1,-1.0748816E-2,9.97405E-1,1.5959018E0,9.966536E-1,1.4244516E-4,-3.8489E-2,9.1710865E-1,-2.1344177E-2,-4.95543E-2,-3.4114665E-1,-1.3853828E0,3.3463622E-3,1.1469766E-2,3.6110025E-2,9.6797377E-1,1.020632E0,1.6537018E0,-3.92416E-2,9.645776E-1,1.5768597E-1,-2.7912724E-1,1.4689281E0,-6.1310595E-1,-4.0817145E-2,-1.5288521E0,2.8206446E0,3.684358E-1,9.2464334E-1,1.3809862E0,5.0821397E-3,1E0,-3.4774197E-3,-1.2921007E-2,6.7676296E-3,1.7952821E0,-3.1312104E-2,-1.3145001E0,-5.888016E-1,-7.4635044E-4,-3.5727177E-2,1.1201114E-3,1.1201114E-3,-4.2311754E-2,3.2864197E-3,1.0066458E0,-3.530778E-1,8.746149E-3,-2.9398672E-2,2.4023027E0,1.5091347E-4,-4.5365322E-1,2.7108993E-3,-4.82206E-1,-3.143101E-2,-5.0182827E-2,-2.7490105E-4,3.3463622E-3,2.5950244E-3,-8.990182E-1,-2.2600482E0,1.5508039E0,-1.5228194E0,-8.443362E-3,1.0558552E-2,-2.2644673E-2,8.873445E-3,5.704196E-3,-1.7205989E-2,-3.252796E-2,9.669133E-3,3.9136442E-3,-2.847991E-2,6.7560826E-3,-2.9769639E-2,3.017269E-3,1.0752916E-2,-5.1464338E-2,-2.740817E-3,5.887323E-3,-3.5011772E-2,-4.7604427E-2,-1.8107839E-2,-7.900342E-3,7.849563E-3,-4.119736E-2,-8.99181E-5,-3.2178465E-2,7.217559E-3,7.545317E-3,1.1338117E-2,7.0527666E-3,-5.4455814E-3,8.190706E-3,-1.3121183E-2,7.052449E-3,-3.550197E-2],"split_indices":[42,16,33,0,36,9,14,39,4,4,36,4,29,0,0,38,14,0,7,15,18,0,7,20,1,16,0,35,24,15,14,7,0,6,7,4,39,1,39,27,0,0,0,5,0,8,7,15,0,28,28,0,0,4,2,0,0,2,0,1,40,15,0,0,0,18,19,2,5,7,0,0,0,0,0,0,0,0,0,0,0,0,0,0,0,0,0,0,0,0,0,0,0,0,0,0,0,0,0,0,0,0,0,0,0],"split_type":[0,0,0,0,0,0,0,0,0,0,0,0,0,0,0,0,0,0,0,0,0,0,0,0,0,0,0,0,0,0,0,0,0,0,0,0,0,0,0,0,0,0,0,0,0,0,0,0,0,0,0,0,0,0,0,0,0,0,0,0,0,0,0,0,0,0,0,0,0,0,0,0,0,0,0,0,0,0,0,0,0,0,0,0,0,0,0,0,0,0,0,0,0,0,0,0,0,0,0,0,0,0,0,0,0],"sum_hessian":[1.1589056E3,4.5382733E2,7.0507825E2,3.067854E2,1.4704193E2,7.007985E2,4.279734E0,2.818527E2,2.493272E1,7.388097E1,7.3160965E1,5.182054E2,1.8259314E2,1.6911918E0,2.5885422E0,2.3862242E2,4.3230263E1,8.747916E0,1.6184803E1,2.8160686E1,4.572028E1,2.6797222E1,4.6363747E1,5.145819E2,3.6234949E0,1.8005362E2,2.5395164E0,2.2023471E2,1.8387709E1,3.826494E1,4.965326E0,1.3371653E1,2.81315E0,3.9433749E0,2.4217312E1,2.6078848E1,1.9641434E1,9.954183E0,3.640956E1,5.1285443E2,1.7274623E0,2.2968314E0,1.3266634E0,1.7848314E2,1.5704806E0,2.0753139E2,1.2703323E1,1.6424232E1,1.963476E0,9.474017E0,2.879092E1,3.4397686E0,1.5255573E0,2.5186214E0,1.0853031E1,2.730235E0,1.2131399E0,2.252448E1,1.6928307E0,9.502919E0,1.657593E1,1.830043E1,1.3410032E0,8.336218E0,1.6179651E0,6.0944204E0,3.0315142E1,5.0946835E2,3.3860729E0,1.7509499E2,3.3881629E0,2.0377536E0,2.0549364E2,3.105888E0,9.597435E0,1.3596708E1,2.8275242E0,5.318065E0,4.155952E0,2.7769438E1,1.021482E0,1.3232319E0,1.1953895E0,1.4675825E0,9.385449E0,2.0683264E1,1.8412174E0,7.4978786E0,2.0050404E0,8.882083E0,7.6938457E0,4.109948E0,1.4190482E1,2.787483E0,3.3069375E0,1.3046808E0,2.9010462E1,3.6443623E1,4.7302472E2,1.4115208E0,1.974552E0,1.7045271E2,4.6422634E0,1.4114265E0,1.9767363E0],"tree_param":{"num_deleted":"0","num_feature":"43","num_nodes":"105","size_leaf_vector":"1"}},{"base_weights":[5.1466227E-1,8.182871E-1,-2.8783727E-1,8.4566545E-1,-3.009921E0,5.077004E-1,-1.32164E0,8.8071734E-1,-1.6774392E0,-4.1438874E-2,6.737867E-3,6.578659E-1,-4.1538853E-2,-1.9631581E0,-1.5395422E-1,9.132255E-1,-1.3886886E0,-6.020818E-1,-3.7256658E-2,3.4545672E-1,1.1662565E-2,-2.686475E0,-1.0398018E0,3.1757542E-1,-3.2250361E0,9.951568E-1,8.7439045E-2,-4.261397E-2,3.378807E-1,3.1635202E-2,-2.671817E-2,8.28439E-1,-8.237205E-1,-1.9012697E0,-4.3121448E0,-5.2499396E-1,-4.27881E-2,-2.9565433E-2,4.7675663E-1,6.7999735E-3,-4.3059535E-2,1.0170453E0,-6.1895746E-1,-2.5931818E0,5.2304864E-1,9.937908E-3,-1.04048075E-2,-9.523668E-3,6.212744E-1,8.96403E-1,-1.0683347E-2,-2.6984194E-1,-4.4687532E-2,-2.585636E0,4.0110484E-1,-1.724102E0,-4.8367918E-2,-1.8721514E0,1.0149646E0,-2.747467E-2,6.231706E-1,1.7984565E-4,1.0458678E-2,4.6764514E-3,-3.4765944E-2,-3.9452083E-2,8.833674E-3,-3.401964E-2,6.6490504E-3,8.895571E-3,6.3234904E-5,1.0201647E-2,3.628447E-3,-3.7159853E-2,9.896965E-4,-3.9870653E-2,-1.284037E-2,8.797016E-3,-7.5281034E-3,-3.302758E-2,7.17825E-3,1.3984279E-3,-4.627073E-2,-2.9189514E-5,1.1206503E-2,7.626295E-3,-1.1696851E-2],"categories":[],"categories_nodes":[],"categories_segments":[],"categories_sizes":[],"default_left":[0,0,0,0,0,0,0,0,0,0,0,0,0,0,0,0,0,0,0,0,0,0,0,0,0,0,0,0,0,0,0,0,0,0,0,0,0,0,0,0,0,0,0,0,0,0,0,0,0,0,0,0,0,0,0,0,0,0,0,0,0,0,0,0,0,0,0,0,0,0,0,0,0,0,0,0,0,0,0,0,0,0,0,0,0,0,0],"id":6,"left_children":[1,3,5,7,9,11,13,15,17,-1,-1,19,-1,21,23,25,27,29,-1,31,-1,33,35,37,39,41,43,-1,45,47,-1,49,51,53,55,57,-1,-1,59,-1,-1,61,63,65,67,-1,-1,-1,69,71,-1,73,-1,75,77,79,-1,81,83,-1,85,-1,-1,-1,-1,-1,-1,-1,-1,-1,-1,-1,-1,-1,-1,-1,-1,-1,-1,-1,-1,-1,-1,-1,-1,-1,-1],"loss_changes":[2.826768E2,9.0716125E1,2.6296384E2,7.5417175E1,2.8661366E1,1.2940227E2,1.0379932E2,6.215027E1,2.3746872E1,0E0,0E0,2.7577507E1,0E0,5.705414E1,7.3953766E1,5.499994E1,6.121236E1,1.179768E1,0E0,6.310229E1,0E0,5.513501E1,6.610776E1,2.4637995E1,3.1601189E1,2.6795593E1,8.845147E1,0E0,8.676798E0,5.131916E0,0E0,1.1105961E1,6.5045395E1,5.6571144E1,1.2531555E1,7.764422E1,0E0,0E0,2.2182972E1,0E0,0E0,2.1033142E1,3.4324154E1,5.3281494E1,3.844906E1,0E0,0E0,0E0,9.0149236E-1,4.6842995E0,0E0,3.7926437E1,0E0,4.4684296E1,5.6002865E0,1.8348324E1,0E0,1.1054054E2,1.9057198E0,0E0,1.1467119E1,0E0,0E0,0E0,0E0,0E0,0E0,0E0,0E0,0E0,0E0,0E0,0E0,0E0,0E0,0E0,0E0,0E0,0E0,0E0,0E0,0E0,0E0,0E0,0E0,0E0,0E0],"parents":[2147483647,0,0,1,1,2,2,3,3,4,4,5,5,6,6,7,7,8,8,11,11,13,13,14,14,15,15,16,16,17,17,19,19,21,21,22,22,23,23,24,24,25,25,26,26,28,28,29,29,31,31,32,32,33,33,34,34,35,35,38,38,41,41,42,42,43,43,44,44,48,48,49,49,51,51,53,53,54,54,55,55,57,57,58,58,60,60],"right_children":[2,4,6,8,10,12,14,16,18,-1,-1,20,-1,22,24,26,28,30,-1,32,-1,34,36,38,40,42,44,-1,46,48,-1,50,52,54,56,58,-1,-1,60,-1,-1,62,64,66,68,-1,-1,-1,70,72,-1,74,-1,76,78,80,-1,82,84,-1,86,-1,-1,-1,-1,-1,-1,-1,-1,-1,-1,-1,-1,-1,-1,-1,-1,-1,-1,-1,-1,-1,-1,-1,-1,-1,-1],"split_conditions":[2.4742982E-1,1E0,9.947462E-1,9.993535E-1,1.5598207E0,9.126299E-1,3.3463622E-3,1E0,1.5838104E-1,-4.1438874E-2,6.737867E-3,7.5343633E-3,-4.1538853E-2,-4.006078E-2,4.602159E-1,1.1535263E0,4.469352E-1,4.6032494E-1,-3.7256658E-2,-5.9609705E-1,1.1662565E-2,6.799994E-2,4.258498E-1,-1.2801121E0,8.154528E-2,1E0,-3.523699E-1,-4.261397E-2,2.71322E-1,-9.828178E-1,-2.671817E-2,1.4238204E0,4.6366647E-1,-4.520144E-2,-1.2566789E0,8.985306E-2,-4.27881E-2,-2.9565433E-2,-9.873839E-1,6.7999735E-3,-4.3059535E-2,-1.005575E0,-6.1095613E-1,1.8299671E0,-1.2712643E0,9.937908E-3,-1.04048075E-2,-9.523668E-3,1.962643E-1,9.924656E-1,-1.0683347E-2,-1.0090568E0,-4.4687532E-2,-6.323958E-1,-3.585789E-1,-1.3434513E0,-4.8367918E-2,-7.74748E-1,-1.1687659E0,-2.747467E-2,1.1492375E0,1.7984565E-4,1.0458678E-2,4.6764514E-3,-3.4765944E-2,-3.9452083E-2,8.833674E-3,-3.401964E-2,6.6490504E-3,8.895571E-3,6.3234904E-5,1.0201647E-2,3.628447E-3,-3.7159853E-2,9.896965E-4,-3.9870653E-2,-1.284037E-2,8.797016E-3,-7.5281034E-3,-3.302758E-2,7.17825E-3,1.3984279E-3,-4.627073E-2,-2.9189514E-5,1.1206503E-2,7.626295E-3,-1.1696851E-2],"split_indices":[9,34,41,33,8,13,18,29,8,0,0,41,0,2,13,6,2,16,0,7,0,15,7,8,18,17,15,0,1,8,0,1,1,15,8,7,0,0,15,0,0,2,13,0,1,0,0,0,7,35,0,1,0,2,7,8,0,13,8,0,8,0,0,0,0,0,0,0,0,0,0,0,0,0,0,0,0,0,0,0,0,0,0,0,0,0,0],"split_type":[0,0,0,0,0,0,0,0,0,0,0,0,0,0,0,0,0,0,0,0,0,0,0,0,0,0,0,0,0,0,0,0,0,0,0,0,0,0,0,0,0,0,0,0,0,0,0,0,0,0,0,0,0,0,0,0,0,0,0,0,0,0,0,0,0,0,0,0,0,0,0,0,0,0,0,0,0,0,0,0,0,0,0,0,0,0,0],"sum_hessian":[1.1581672E3,8.402426E2,3.1792456E2,8.350496E2,5.1929693E0,1.7995415E2,1.3797041E2,8.242498E2,1.0799832E1,3.8751483E0,1.3178208E0,1.751702E2,4.783951E0,8.8608376E1,4.936204E1,8.131987E2,1.1051081E1,7.930253E0,2.869579E0,1.09537964E2,6.563223E1,4.8615593E1,3.9992786E1,4.3569096E1,5.7929463E0,7.396121E2,7.358662E1,3.597441E0,7.4536405E0,6.825208E0,1.1050448E0,7.7722534E1,3.1815424E1,3.4244762E1,1.4370831E1,3.5510788E1,4.4819994E0,1.2052599E0,4.2363834E1,1.3362778E0,4.4566684E0,7.3008167E2,9.530475E0,9.594112E0,6.3992504E1,5.2394094E0,2.214231E0,2.3268852E0,4.498323E0,7.554313E1,2.179408E0,2.8551004E1,3.264419E0,2.6303255E1,7.941507E0,3.1446638E0,1.1226167E1,1.8826036E1,1.6684752E1,1.0685235E0,4.129531E1,2.051754E1,7.095641E2,7.510859E0,2.0196152E0,6.810651E0,2.783461E0,1.4304962E0,6.2562008E1,2.8210444E0,1.6772785E0,6.0579403E1,1.4963727E1,1.8827921E0,2.6668213E1,1.1672398E1,1.4630857E1,5.7812986E0,2.1602082E0,1.695826E0,1.4488378E0,1.1428634E1,7.3974023E0,1.6608741E0,1.5023877E1,3.8848106E1,2.4472053E0],"tree_param":{"num_deleted":"0","num_feature":"43","num_nodes":"87","size_leaf_vector":"1"}},{"base_weights":[5.001318E-1,-1.0147297E-1,9.003187E-1,4.144855E-1,-1.2072471E0,9.556725E-1,-4.4979325E-1,5.3267175E-1,-3.6063395E0,-1.9168222E0,3.2055106E-3,9.750281E-1,-1.409032E0,4.1782892E-1,-4.0775172E-2,7.335507E-1,-1.1184047E0,6.8673007E-3,-4.4431757E-2,-3.107417E0,-8.133275E-1,4.4170156E-1,-3.1088302E0,9.945397E-1,-1.3361439E0,-3.6062215E-2,6.2789014E-3,8.7691575E-1,-1.7735523E0,9.10122E-1,-1.051269E-1,1.1797166E-1,-3.058489E0,-3.9295897E0,-1.3511374E0,-4.4336402E-1,-4.0437076E-2,-3.2493208E-2,6.434639E-1,3.234951E-3,-4.12268E-2,1.019459E0,-6.641345E-1,-3.253129E-2,2.12012E-1,1.0644296E0,-6.1713383E-3,7.1404967E-3,-3.2240618E-2,1.1103329E-1,9.7374E-1,-1.4602518E0,1.1382773E-2,-3.7297305E-2,7.645798E-1,-3.5275974E0,6.71418E-3,-4.4534545E0,4.2235234E-1,-4.115863E-2,-1.4416073E-1,-1.4897733E0,8.527979E-1,7.679197E-1,-1.1906514E0,1.1059659E0,7.6376337E-1,9.960065E-3,-2.5944479E0,6.9761067E-3,-2.7000243E-3,2.8937738E-3,1.1138253E-2,7.983724E-3,-3.868073E-2,9.909273E-3,-5.9305397E-3,1.780492E-3,-2.8909318E-2,1.050034E-2,-4.090022E-3,-1.8507328E-2,-4.7328375E-2,-4.7601443E-2,-1.1068965E-2,6.9505144E-3,2.7510172E-4,-2.0559005E-2,9.430797E-3,-3.7988964E-2,2.8052088E-3,1.02614695E-2,-5.2844277E-3,8.631942E-3,-8.27781E-3,6.9266665E-3,-2.793063E-2,1.1119078E-2,-3.25693E-3,8.165862E-3,-1.616017E-2,-4.0062618E-2,6.91095E-3],"categories":[],"categories_nodes":[],"categories_segments":[],"categories_sizes":[],"default_left":[0,0,0,0,0,0,0,0,0,0,0,0,0,0,0,0,0,0,0,0,0,0,0,0,0,0,0,0,0,0,0,0,0,0,0,0,0,0,0,0,0,0,0,0,0,0,0,0,0,0,0,0,0,0,0,0,0,0,0,0,0,0,0,0,0,0,0,0,0,0,0,0,0,0,0,0,0,0,0,0,0,0,0,0,0,0,0,0,0,0,0,0,0,0,0,0,0,0,0,0,0,0,0],"id":7,"left_children":[1,3,5,7,9,11,13,15,17,19,21,23,25,27,-1,29,31,-1,-1,33,35,37,39,41,43,-1,-1,45,47,49,51,53,55,57,59,61,-1,-1,63,-1,-1,65,67,-1,69,71,-1,-1,-1,73,75,77,-1,-1,79,81,-1,83,85,-1,87,89,91,93,95,97,99,-1,101,-1,-1,-1,-1,-1,-1,-1,-1,-1,-1,-1,-1,-1,-1,-1,-1,-1,-1,-1,-1,-1,-1,-1,-1,-1,-1,-1,-1,-1,-1,-1,-1,-1,-1],"loss_changes":[2.7768045E2,2.6379474E2,5.2183716E1,1.5180518E2,1.26333496E2,3.1836609E1,8.968941E1,1.0273283E2,3.586946E1,1.19296875E2,7.6909615E1,3.1124695E1,2.8278048E1,2.516283E1,0E0,4.0752518E1,8.125765E1,0E0,0E0,5.85831E1,5.7338924E1,3.887424E1,2.5555824E1,2.7782593E1,1.8372377E1,0E0,0E0,6.279769E0,1.8161978E1,1.1426788E1,8.362854E1,5.6495586E1,2.5402298E1,6.939786E1,5.157348E1,6.3005215E1,0E0,0E0,1.1795244E1,0E0,0E0,1.3454895E1,3.5629723E1,0E0,1.1796257E0,3.7443733E-1,0E0,0E0,0E0,5.1937977E1,6.2438965E0,5.6100285E1,0E0,0E0,6.891433E0,1.5196808E1,0E0,2.1949646E1,4.2182755E-1,0E0,2.6711834E1,1.05504166E2,5.5627337E0,7.5933514E0,1.2258982E1,4.4523926E0,2.22695E1,0E0,2.6172237E1,0E0,0E0,0E0,0E0,0E0,0E0,0E0,0E0,0E0,0E0,0E0,0E0,0E0,0E0,0E0,0E0,0E0,0E0,0E0,0E0,0E0,0E0,0E0,0E0,0E0,0E0,0E0,0E0,0E0,0E0,0E0,0E0,0E0,0E0],"parents":[2147483647,0,0,1,1,2,2,3,3,4,4,5,5,6,6,7,7,8,8,9,9,10,10,11,11,12,12,13,13,15,15,16,16,19,19,20,20,21,21,22,22,23,23,24,24,27,27,28,28,29,29,30,30,31,31,32,32,33,33,34,34,35,35,38,38,41,41,42,42,44,44,45,45,49,49,50,50,51,51,54,54,55,55,57,57,58,58,60,60,61,61,62,62,63,63,64,64,65,65,66,66,68,68],"right_children":[2,4,6,8,10,12,14,16,18,20,22,24,26,28,-1,30,32,-1,-1,34,36,38,40,42,44,-1,-1,46,48,50,52,54,56,58,60,62,-1,-1,64,-1,-1,66,68,-1,70,72,-1,-1,-1,74,76,78,-1,-1,80,82,-1,84,86,-1,88,90,92,94,96,98,100,-1,102,-1,-1,-1,-1,-1,-1,-1,-1,-1,-1,-1,-1,-1,-1,-1,-1,-1,-1,-1,-1,-1,-1,-1,-1,-1,-1,-1,-1,-1,-1,-1,-1,-1,-1],"split_conditions":[5.0821397E-3,2.4742982E-1,1.0265944E0,9.0653235E-1,3.3463622E-3,2.0855198E0,1.6907322E-1,1.1535263E0,-2.2600482E0,-4.006078E-2,4.6699032E-1,9.769774E-1,5.000037E-1,-2.661849E-1,-4.0775172E-2,-7.166472E-2,2.3089062E-1,6.8673007E-3,-4.4431757E-2,1.1201114E-3,5.320938E-1,-9.873839E-1,-4.6174037E-1,9.966536E-1,6.4650044E-4,-3.6062215E-2,6.2789014E-3,1.0476992E0,-1.208524E0,-8.4946847E-1,-8.97181E-1,-2.0475538E-1,-8.97181E-1,2.9913404E0,1.8906371E-1,8.985306E-2,-4.0437076E-2,-3.2493208E-2,1.1376275E0,3.234951E-3,-4.12268E-2,2.4422328E-1,-8.0648255E-1,-3.253129E-2,-1.5293566E0,-4.2209944E-1,-6.1713383E-3,7.1404967E-3,-3.2240618E-2,-9.5235336E-1,9.9147534E-1,-1.5606881E0,1.1382773E-2,-3.7297305E-2,9.6212196E-1,-5.538297E-1,6.71418E-3,2.3752358E-4,-3.9580765E-1,-4.115863E-2,-5.445298E-1,1.1201114E-3,3.6310175E-1,7.3590463E-1,-1.4956088E0,2.580015E0,1.0451156E0,9.960065E-3,1.4350486E0,6.9761067E-3,-2.7000243E-3,2.8937738E-3,1.1138253E-2,7.983724E-3,-3.868073E-2,9.909273E-3,-5.9305397E-3,1.780492E-3,-2.8909318E-2,1.050034E-2,-4.090022E-3,-1.8507328E-2,-4.7328375E-2,-4.7601443E-2,-1.1068965E-2,6.9505144E-3,2.7510172E-4,-2.0559005E-2,9.430797E-3,-3.7988964E-2,2.8052088E-3,1.02614695E-2,-5.2844277E-3,8.631942E-3,-8.27781E-3,6.9266665E-3,-2.793063E-2,1.1119078E-2,-3.25693E-3,8.165862E-3,-1.616017E-2,-4.0062618E-2,6.91095E-3],"split_indices":[42,9,13,7,18,7,11,6,5,2,14,33,4,9,0,13,5,0,0,31,7,15,16,29,24,0,0,14,4,15,9,15,9,16,4,7,0,0,7,0,0,9,11,0,4,14,0,0,0,6,29,3,0,0,24,15,0,37,11,0,7,31,4,25,1,11,5,0,2,0,0,0,0,0,0,0,0,0,0,0,0,0,0,0,0,0,0,0,0,0,0,0,0,0,0,0,0,0,0,0,0,0,0],"split_type":[0,0,0,0,0,0,0,0,0,0,0,0,0,0,0,0,0,0,0,0,0,0,0,0,0,0,0,0,0,0,0,0,0,0,0,0,0,0,0,0,0,0,0,0,0,0,0,0,0,0,0,0,0,0,0,0,0,0,0,0,0,0,0,0,0,0,0,0,0,0,0,0,0,0,0,0,0,0,0,0,0,0,0,0,0,0,0,0,0,0,0,0,0,0,0,0,0,0,0,0,0,0,0],"sum_hessian":[1.1519973E3,4.604879E2,6.9150946E2,3.1440875E2,1.4607918E2,6.6455524E2,2.695421E1,3.062738E2,8.134948E0,9.1725525E1,5.435365E1,6.5974274E2,4.8124704E0,2.2465975E1,4.4882355E0,2.7354816E2,3.2725643E1,1.356307E0,6.7786407E0,4.3247967E1,4.847756E1,4.8392986E1,5.960664E0,6.5478455E2,4.958191E0,1.9445231E0,2.8679473E0,1.9070585E1,3.3953881E0,2.2590251E2,4.764565E1,2.0561443E1,1.2164199E1,2.8614923E1,1.4633041E1,4.4516495E1,3.9610608E0,1.7253263E0,4.666766E1,1.514464E0,4.4462E0,6.454726E2,9.311964E0,1.723185E0,3.235006E0,1.7199484E1,1.8711029E0,1.4376186E0,1.9577696E0,1.6861023E1,2.0904149E2,2.2715141E1,2.493051E1,2.2722225E0,1.828922E1,1.0853411E1,1.3107882E0,2.551967E1,3.0952532E0,3.714491E0,1.0918551E1,2.4548656E1,1.996784E1,4.424658E1,2.4210842E0,4.7981598E2,1.6565663E2,5.2665524E0,4.045412E0,1.388699E0,1.8463072E0,1.4413948E0,1.5758088E1,1.5059114E1,1.8019085E0,2.071368E2,1.9046974E0,1.0997374E1,1.1717767E1,1.479569E1,3.4935315E0,5.599012E0,5.254399E0,2.2990356E1,2.529313E0,1.3810791E0,1.7141742E0,3.635379E0,7.2831717E0,1.0155799E1,1.43928585E1,1.7969683E1,1.9981568E0,4.2186783E1,2.0597954E0,1.3739787E0,1.0471054E0,4.780552E2,1.7607585E0,1.6270207E2,2.954557E0,2.6761122E0,1.3692997E0],"tree_param":{"num_deleted":"0","num_feature":"43","num_nodes":"103","size_leaf_vector":"1"}},{"base_weights":[5.1070726E-1,-1.0718017E-1,9.080287E-1,3.6871552E-1,-9.7785145E-1,9.3543714E-1,-1.9283893E0,4.8228317E-1,-3.4603503E0,-7.037579E-1,-4.2464934E-2,9.564283E-1,-1.5194324E0,-3.7199795E-2,8.49213E-3,7.8809106E-1,-3.71493E-1,3.262221E-3,-4.322217E-2,-5.5217725E-1,-4.0945075E-2,9.837006E-1,-8.393928E-1,6.3425866E-3,-3.5494685E-2,8.7975484E-1,-1.2450212E0,-1.5376531E0,1.1468236E-2,-4.051424E-1,-4.016403E-2,9.979309E-1,-3.3539798E-2,4.4716078E-1,-3.6422804E-2,9.65674E-1,-4.5012814E-1,5.563568E-1,-4.045795E-2,-2.5431976E0,1.8289457E-1,3.744258E-1,-9.2420703E-1,1.0178777E0,-6.478965E-1,9.935681E-3,-7.9373475E-3,9.89438E-3,-7.524987E-3,8.35659E-3,-2.8038237E-2,9.424747E-3,-3.4137098E-3,-3.970584E-2,-1.4536037E-3,-1.6486503E-2,6.8099895E-3,7.4794604E-3,-1.0950122E-2,-1.317123E-2,3.945295E-3,1.0291254E-2,-1.4025813E-2,-3.170603E-2,3.3592808E-3],"categories":[],"categories_nodes":[],"categories_segments":[],"categories_sizes":[],"default_left":[0,0,0,0,0,0,0,0,0,0,0,0,0,0,0,0,0,0,0,0,0,0,0,0,0,0,0,0,0,0,0,0,0,0,0,0,0,0,0,0,0,0,0,0,0,0,0,0,0,0,0,0,0,0,0,0,0,0,0,0,0,0,0,0,0],"id":8,"left_children":[1,3,5,7,9,11,13,15,17,19,-1,21,23,-1,-1,25,27,-1,-1,29,-1,31,33,-1,-1,35,37,39,-1,41,-1,43,-1,45,-1,47,49,51,-1,53,55,57,59,61,63,-1,-1,-1,-1,-1,-1,-1,-1,-1,-1,-1,-1,-1,-1,-1,-1,-1,-1,-1,-1],"loss_changes":[2.8307144E2,1.8764777E2,5.6350647E1,1.2907597E2,1.4037415E2,3.729773E1,3.8201015E1,7.481448E1,2.9351547E1,7.423702E1,0E0,3.4634705E1,2.9724497E1,0E0,0E0,4.0319397E1,1.3624435E2,0E0,0E0,7.1529236E1,0E0,4.5348816E1,4.081308E1,0E0,0E0,2.3513123E1,5.014994E1,7.552515E1,0E0,5.6546623E1,0E0,2.2950195E1,0E0,6.4423103E0,0E0,8.503967E0,4.1501785E1,2.629203E0,0E0,9.3371475E1,1.6573366E1,3.167915E1,4.386972E1,1.97182E1,2.2761011E1,0E0,0E0,0E0,0E0,0E0,0E0,0E0,0E0,0E0,0E0,0E0,0E0,0E0,0E0,0E0,0E0,0E0,0E0,0E0,0E0],"parents":[2147483647,0,0,1,1,2,2,3,3,4,4,5,5,6,6,7,7,8,8,9,9,11,11,12,12,15,15,16,16,19,19,21,21,22,22,25,25,26,26,27,27,29,29,31,31,33,33,35,35,36,36,37,37,39,39,40,40,41,41,42,42,43,43,44,44],"right_children":[2,4,6,8,10,12,14,16,18,20,-1,22,24,-1,-1,26,28,-1,-1,30,-1,32,34,-1,-1,36,38,40,-1,42,-1,44,-1,46,-1,48,50,52,-1,54,56,58,60,62,64,-1,-1,-1,-1,-1,-1,-1,-1,-1,-1,-1,-1,-1,-1,-1,-1,-1,-1,-1,-1],"split_conditions":[5.0821397E-3,2.4422328E-1,1.8337538E0,1.107351E0,6.4650044E-4,9.993535E-1,2.2580624E0,-4.0916306E-1,-2.2600482E0,4.1878104E-1,-4.2464934E-2,9.966536E-1,-1.3410581E0,-3.7199795E-2,8.49213E-3,3.211939E-1,-8.97181E-1,3.262221E-3,-4.322217E-2,4.168625E-3,-4.0945075E-2,1E0,-7.488889E-1,6.3425866E-3,-3.5494685E-2,9.645776E-1,-6.4821076E-1,4.3367377E-1,1.1468236E-2,9.769774E-1,-4.016403E-2,9.3201435E-1,-3.3539798E-2,2.71322E-1,-3.6422804E-2,1E0,-9.450672E-1,-3.981278E-1,-4.045795E-2,9.775193E-2,2.307384E-3,-2.532445E-1,4.5532164E-1,1E0,-4.2028484E-1,9.935681E-3,-7.9373475E-3,9.89438E-3,-7.524987E-3,8.35659E-3,-2.8038237E-2,9.424747E-3,-3.4137098E-3,-3.970584E-2,-1.4536037E-3,-1.6486503E-2,6.8099895E-3,7.4794604E-3,-1.0950122E-2,-1.317123E-2,3.945295E-3,1.0291254E-2,-1.4025813E-2,-3.170603E-2,3.3592808E-3],"split_indices":[42,9,16,10,35,33,7,16,5,5,0,29,11,0,0,0,9,0,0,17,0,27,9,0,0,35,6,0,0,19,0,32,0,1,0,33,4,13,0,10,36,14,12,34,1,0,0,0,0,0,0,0,0,0,0,0,0,0,0,0,0,0,0,0,0],"split_type":[0,0,0,0,0,0,0,0,0,0,0,0,0,0,0,0,0,0,0,0,0,0,0,0,0,0,0,0,0,0,0,0,0,0,0,0,0,0,0,0,0,0,0,0,0,0,0,0,0,0,0,0,0,0,0,0,0,0,0,0,0,0,0,0,0],"sum_hessian":[1.1516443E3,4.5100388E2,7.0064044E2,2.9198553E2,1.5901834E2,6.945987E2,6.0417337E0,2.8442377E2,7.56178E0,1.4783672E2,1.1181616E1,6.893149E2,5.2838006E0,3.4665108E0,2.575223E0,2.0947159E2,7.495217E1,1.5172601E0,6.04452E0,1.4262369E2,5.2130256E0,6.794486E2,9.866247E0,2.8974364E0,2.3863645E0,2.0097769E2,8.493882E0,4.2385094E1,3.2567078E1,1.3788815E2,4.735544E0,6.779943E2,1.4543099E0,7.33834E0,2.5279076E0,1.8903844E2,1.1939258E1,5.6568885E0,2.8369935E0,2.6449186E1,1.5935905E1,5.5225388E1,8.266276E1,6.702527E2,7.741653E0,5.233271E0,2.1050687E0,1.8687787E2,2.1605735E0,8.138358E0,3.8008993E0,3.9207196E0,1.736169E0,1.6168493E1,1.0280694E1,2.9133997E0,1.3022506E1,4.4424107E1,1.080128E1,6.368817E1,1.897459E1,6.677246E2,2.528078E0,1.5484391E0,6.193214E0],"tree_param":{"num_deleted":"0","num_feature":"43","num_nodes":"65","size_leaf_vector":"1"}},{"base_weights":[4.8971838E-1,7.981893E-1,-3.0814996E-1,8.244171E-1,-3.806817E-2,4.180782E-1,-1.2152983E0,8.6358273E-1,-1.7319705E0,5.734568E-1,-2.989188E0,-1.797989E0,-3.081744E-2,8.931788E-1,-2.18149E0,2.0884062E-1,-2.4243972E0,6.375786E-1,-3.302582E-2,-3.9203748E-2,7.0856716E-3,-2.2270648E0,-1.8551761E-1,6.236793E-1,-2.2496247E0,9.2789197E-1,-1.1446288E0,-3.83357E-2,2.7221307E-2,6.9217985E-3,-2.6706238E-3,-3.119508E0,7.327975E-3,7.3284864E-1,-1.438619E0,-3.1006687E0,-5.530511E-1,-2.5286832E0,6.904949E-1,9.504473E-1,-1.0087587E-1,-1.2866719E-1,-4.1033547E-2,9.447442E-1,-2.2713606E0,-4.1895136E-2,7.375634E-1,-5.1621324E-3,6.9935545E-3,3.3699286E-3,-4.020434E-2,7.930299E-1,-1.7376302E0,-3.9295994E-2,3.9738578E-1,-4.181761E0,-1.8550776E0,8.79003E-1,-9.9058855E-1,-3.73948E-2,7.1509876E-3,-8.32556E-2,1.0860695E-2,2.909407E-1,1.08416425E-2,5.409148E-1,-3.0302793E-2,-1.1509935E0,8.67914E-3,6.722283E-3,1.1015513E-2,6.767573E-3,-3.7774175E-2,1.0267584E-2,-3.170141E-3,8.764353E-3,-5.201243E-3,7.0168744E-3,-3.2486115E-2,8.572701E-3,-3.6780199E-3,-4.4894457E-2,-2.3903E-2,3.3229957E-3,-3.2873116E-2,9.769495E-3,3.2593345E-3,-3.9376635E-2,-1.330684E-3,-2.581894E-2,9.692913E-3,8.797234E-3,-5.566691E-3,9.958531E-3,-4.0406166E-4,-2.7100138E-2,6.96003E-3],"categories":[],"categories_nodes":[],"categories_segments":[],"categories_sizes":[],"default_left":[0,0,0,0,0,0,0,0,0,0,0,0,0,0,0,0,0,0,0,0,0,0,0,0,0,0,0,0,0,0,0,0,0,0,0,0,0,0,0,0,0,0,0,0,0,0,0,0,0,0,0,0,0,0,0,0,0,0,0,0,0,0,0,0,0,0,0,0,0,0,0,0,0,0,0,0,0,0,0,0,0,0,0,0,0,0,0,0,0,0,0,0,0,0,0,0,0],"id":9,"left_children":[1,3,5,7,-1,9,11,13,15,17,19,21,23,25,27,29,31,33,-1,-1,-1,35,37,39,41,43,45,-1,47,-1,-1,49,-1,51,53,55,57,59,61,63,65,67,-1,69,71,-1,73,-1,-1,-1,-1,75,77,-1,79,81,83,85,87,-1,-1,89,-1,91,-1,93,-1,95,-1,-1,-1,-1,-1,-1,-1,-1,-1,-1,-1,-1,-1,-1,-1,-1,-1,-1,-1,-1,-1,-1,-1,-1,-1,-1,-1,-1,-1],"loss_changes":[2.7777078E2,1.013902E2,2.0810895E2,8.2564514E1,0E0,9.476268E1,9.682219E1,7.387933E1,1.7372734E1,4.409139E1,2.9726143E1,6.466751E1,7.009209E1,5.7028687E1,2.9198624E1,1.1557715E0,2.2760883E1,3.409066E1,0E0,0E0,0E0,1.0680286E2,4.4565388E1,8.929124E0,4.2686306E1,4.4116943E1,8.160132E1,0E0,1.969924E0,0E0,0E0,2.5757965E1,0E0,2.521891E1,3.661815E1,5.760855E1,1.7576767E1,2.581192E1,4.978288E0,1.9605503E0,2.5140234E1,7.273468E0,0E0,3.238141E1,2.1972322E1,0E0,3.1667738E0,0E0,0E0,0E0,0E0,1.7676071E1,1.748966E1,0E0,2.1877265E0,3.1534119E0,7.738362E1,4.8295975E-2,5.2275757E1,0E0,0E0,1.9153131E1,0E0,3.3430393E0,0E0,2.9763992E0,0E0,1.18777485E1,0E0,0E0,0E0,0E0,0E0,0E0,0E0,0E0,0E0,0E0,0E0,0E0,0E0,0E0,0E0,0E0,0E0,0E0,0E0,0E0,0E0,0E0,0E0,0E0,0E0,0E0,0E0,0E0,0E0],"parents":[2147483647,0,0,1,1,2,2,3,3,5,5,6,6,7,7,8,8,9,9,10,10,11,11,12,12,13,13,14,14,15,15,16,16,17,17,21,21,22,22,23,23,24,24,25,25,26,26,28,28,31,31,33,33,34,34,35,35,36,36,37,37,38,38,39,39,40,40,41,41,43,43,44,44,46,46,51,51,52,52,54,54,55,55,56,56,57,57,58,58,61,61,63,63,65,65,67,67],"right_children":[2,4,6,8,-1,10,12,14,16,18,20,22,24,26,28,30,32,34,-1,-1,-1,36,38,40,42,44,46,-1,48,-1,-1,50,-1,52,54,56,58,60,62,64,66,68,-1,70,72,-1,74,-1,-1,-1,-1,76,78,-1,80,82,84,86,88,-1,-1,90,-1,92,-1,94,-1,96,-1,-1,-1,-1,-1,-1,-1,-1,-1,-1,-1,-1,-1,-1,-1,-1,-1,-1,-1,-1,-1,-1,-1,-1,-1,-1,-1,-1,-1],"split_conditions":[2.4742982E-1,1E0,9.947462E-1,1E0,-3.806817E-2,9.312677E-1,3.3463622E-3,1E0,-1.3410581E0,9.966536E-1,2.7108993E-3,4.5532164E-1,-2.532445E-1,1E0,4.5532164E-1,-7.274015E-1,1.443071E0,1.2638285E0,-3.302582E-2,-3.9203748E-2,7.0856716E-3,1.1201114E-3,7.6465833E-1,8.95753E-1,-4.6174037E-1,2.580015E0,3.3463622E-3,-3.83357E-2,7.619313E-1,6.9217985E-3,-2.6706238E-3,-2.360161E0,7.327975E-3,1.7952821E0,1.1201114E-3,8.985306E-2,-1.327976E0,2.1709752E0,2.7444651E-3,1.9537276E-2,1.8895033E-1,8.300958E-1,-4.1033547E-2,5.0821397E-3,-1.4149846E0,-4.1895136E-2,-6.630414E-1,-5.1621324E-3,6.9935545E-3,3.3699286E-3,-4.020434E-2,8.220483E-1,-1.0546192E0,-3.9295994E-2,-1.0044761E0,1.8242482E-2,3.642335E-1,-1.2623322E-1,1.339566E-1,-3.73948E-2,7.1509876E-3,5.0821397E-3,1.0860695E-2,-7.625252E-1,1.08416425E-2,8.37079E-1,-3.0302793E-2,1.9865344E-1,8.67914E-3,6.722283E-3,1.1015513E-2,6.767573E-3,-3.7774175E-2,1.0267584E-2,-3.170141E-3,8.764353E-3,-5.201243E-3,7.0168744E-3,-3.2486115E-2,8.572701E-3,-3.6780199E-3,-4.4894457E-2,-2.3903E-2,3.3229957E-3,-3.2873116E-2,9.769495E-3,3.2593345E-3,-3.9376635E-2,-1.330684E-3,-2.581894E-2,9.692913E-3,8.797234E-3,-5.566691E-3,9.958531E-3,-4.0406166E-4,-2.7100138E-2,6.96003E-3],"split_indices":[9,34,41,33,0,13,18,32,11,29,40,12,14,29,12,4,1,1,0,0,0,31,0,21,16,11,18,0,1,0,0,12,0,5,31,7,4,11,25,38,0,1,0,42,4,0,1,0,0,0,0,7,7,0,0,33,7,3,4,0,0,29,0,0,0,18,0,11,0,0,0,0,0,0,0,0,0,0,0,0,0,0,0,0,0,0,0,0,0,0,0,0,0,0,0,0,0],"split_type":[0,0,0,0,0,0,0,0,0,0,0,0,0,0,0,0,0,0,0,0,0,0,0,0,0,0,0,0,0,0,0,0,0,0,0,0,0,0,0,0,0,0,0,0,0,0,0,0,0,0,0,0,0,0,0,0,0,0,0,0,0,0,0,0,0,0,0,0,0,0,0,0,0,0,0,0,0,0,0,0,0,0,0,0,0,0,0,0,0,0,0,0,0,0,0,0,0],"sum_hessian":[1.1266034E3,8.124822E2,3.1412128E2,8.086972E2,3.7849617E0,1.747568E2,1.3936447E2,7.9714655E2,1.1550638E1,1.6793051E2,6.826295E0,9.306455E1,4.629992E1,7.901733E2,6.973287E0,3.2209609E0,8.329677E0,1.6601955E2,1.9109734E0,5.4049816E0,1.4213132E0,7.320396E1,1.9860598E1,3.6308628E1,9.991291E0,7.77474E2,1.2699266E1,3.5684705E0,3.4048169E0,1.3725294E0,1.8484315E0,6.836451E0,1.4932258E0,1.5935431E2,6.665234E0,4.7541588E1,2.566237E1,4.891143E0,1.4969454E1,2.480846E1,1.1500168E1,5.1585317E0,4.832759E0,7.741011E2,3.3729231E0,4.3829513E0,8.316316E0,2.010923E0,1.3938941E0,1.542899E0,5.293552E0,1.5622757E2,3.1267302E0,2.344313E0,4.320921E0,2.4189459E1,2.3352129E1,5.769593E0,1.9892778E1,3.4504058E0,1.4407372E0,5.331156E0,9.638298E0,4.7174206E0,2.009104E1,1.0102257E1,1.3979108E0,2.469892E0,2.6886396E0,2.8466577E2,4.894353E2,1.3266462E0,2.0462768E0,6.5472527E0,1.769063E0,1.4721005E2,9.017517E0,1.4008368E0,1.7258934E0,2.6237097E0,1.6972115E0,1.935858E1,4.830879E0,9.544023E0,1.3808106E1,4.250443E0,1.51915E0,3.6740608E0,1.6218718E1,1.1494596E0,4.181696E0,2.7613752E0,1.9560456E0,5.2671385E0,4.835118E0,1.0859796E0,1.3839124E0],"tree_param":{"num_deleted":"0","num_feature":"43","num_nodes":"97","size_leaf_vector":"1"}},{"base_weights":[4.816374E-1,7.962179E-1,-2.6528803E-1,8.95242E-1,-1.1148108E-1,4.712356E-1,-1.1327877E0,9.236195E-1,-2.0452795E0,-4.326518E-2,1.4575917E-1,6.337638E-1,-2.9872432E0,-8.5520107E-1,-3.9896917E-2,9.468379E-1,-1.6316805E0,6.0055126E-3,-3.8465332E-2,3.7493134E-1,-3.7855428E-2,7.02017E-1,-3.3355888E-2,-3.8506802E-2,7.063458E-3,-1.4227972E0,1.2788217E-1,9.654042E-1,-2.0128303E0,-3.5327226E-2,6.3754944E-3,9.060164E-1,-3.20419E-1,8.4262305E-1,-2.0173272E-1,-1.1697518E0,-4.1009102E-2,6.352467E-1,-1.6736829E0,9.7744083E-1,-1.5557669E0,-3.3091486E-2,6.842701E-3,1.0202384E0,-8.965187E-3,-1.9502411E0,6.08013E-1,9.8544693E-1,-1.2202728E-1,4.710011E-1,-2.8176403E0,-1.9138185E0,-4.1410714E-1,-3.5592905E-1,9.8876315E-1,5.856108E-1,-4.0104143E-2,7.597519E-3,1.1157362E-2,-3.0499505E-2,6.688521E-3,1.0665344E-2,-4.0933045E-4,-6.284239E-3,-3.9915413E-2,9.247555E-3,-2.703901E-2,1.04523515E-2,1.7241905E-3,5.0700936E-3,-3.8751848E-2,7.73551E-3,-1.2589013E-2,3.0502628E-3,-4.200202E-2,-1.0117986E-2,-3.708711E-2,-6.345882E-4,-3.678497E-2,7.5398246E-3,-3.6117166E-2,2.7242813E-3,1.1042623E-2,-2.8033534E-3,9.5554935E-3],"categories":[],"categories_nodes":[],"categories_segments":[],"categories_sizes":[],"default_left":[0,0,0,0,0,0,0,0,0,0,0,0,0,0,0,0,0,0,0,0,0,0,0,0,0,0,0,0,0,0,0,0,0,0,0,0,0,0,0,0,0,0,0,0,0,0,0,0,0,0,0,0,0,0,0,0,0,0,0,0,0,0,0,0,0,0,0,0,0,0,0,0,0,0,0,0,0,0,0,0,0,0,0,0,0],"id":10,"left_children":[1,3,5,7,9,11,13,15,17,-1,19,21,23,25,-1,27,29,-1,-1,31,-1,33,-1,-1,-1,35,37,39,41,-1,-1,43,45,47,49,51,-1,53,55,57,59,-1,-1,61,-1,63,65,67,69,71,73,75,77,79,81,83,-1,-1,-1,-1,-1,-1,-1,-1,-1,-1,-1,-1,-1,-1,-1,-1,-1,-1,-1,-1,-1,-1,-1,-1,-1,-1,-1,-1,-1],"loss_changes":[2.6345383E2,7.097949E1,2.1314813E2,6.1227722E1,8.569761E1,1.0345018E2,1.1799425E2,4.3372864E1,3.6185966E1,0E0,6.890892E1,4.931655E1,2.9140846E1,7.875051E1,0E0,4.0369263E1,3.122212E1,0E0,0E0,2.6765972E1,0E0,2.19356E1,0E0,0E0,0E0,5.5753174E1,4.901116E1,2.262976E1,1.8639368E1,0E0,0E0,9.337418E0,4.9281013E1,2.0568428E1,4.3329582E1,4.5893547E1,0E0,1.4947588E1,6.465529E1,2.0012817E1,1.430896E1,0E0,0E0,1.9566498E0,0E0,2.925697E1,2.4542074E1,6.1091995E0,4.925357E1,1.1358752E1,2.2978302E1,6.3536957E1,4.8383167E1,4.4952915E1,2.2613792E0,2.4696112E0,0E0,0E0,0E0,0E0,0E0,0E0,0E0,0E0,0E0,0E0,0E0,0E0,0E0,0E0,0E0,0E0,0E0,0E0,0E0,0E0,0E0,0E0,0E0,0E0,0E0,0E0,0E0,0E0,0E0],"parents":[2147483647,0,0,1,1,2,2,3,3,4,4,5,5,6,6,7,7,8,8,10,10,11,11,12,12,13,13,15,15,16,16,19,19,21,21,25,25,26,26,27,27,28,28,31,31,32,32,33,33,34,34,35,35,37,37,38,38,39,39,40,40,43,43,45,45,46,46,47,47,48,48,49,49,50,50,51,51,52,52,53,53,54,54,55,55],"right_children":[2,4,6,8,10,12,14,16,18,-1,20,22,24,26,-1,28,30,-1,-1,32,-1,34,-1,-1,-1,36,38,40,42,-1,-1,44,46,48,50,52,-1,54,56,58,60,-1,-1,62,-1,64,66,68,70,72,74,76,78,80,82,84,-1,-1,-1,-1,-1,-1,-1,-1,-1,-1,-1,-1,-1,-1,-1,-1,-1,-1,-1,-1,-1,-1,-1,-1,-1,-1,-1,-1,-1],"split_conditions":[2.4742982E-1,1.1535263E0,9.947462E-1,1E0,-8.295287E-1,9.312677E-1,6.4650044E-4,6.307695E-1,-1.1721952E0,-4.326518E-2,3.6442095E-1,9.966536E-1,2.7108993E-3,3.3463622E-3,-3.9896917E-2,1E0,1.2201717E0,6.0055126E-3,-3.8465332E-2,8.857327E-1,-3.7855428E-2,9.512164E-1,-3.3355888E-2,-3.8506802E-2,7.063458E-3,1.1876254E0,-2.532445E-1,1E0,1.2392265E0,-3.5327226E-2,6.3754944E-3,6.5419054E-1,5.0821397E-3,1.1433736E0,2.1190211E-1,-1.5924369E-1,-4.1009102E-2,1.9537276E-2,-4.6174037E-1,5.0821397E-3,1.4856803E0,-3.3091486E-2,6.842701E-3,1.020632E0,-8.965187E-3,-8.072207E-1,8.766615E-1,1.1383357E0,6.799994E-2,-5.8397573E-1,-1.1703254E0,6.799994E-2,1.6937311E0,-6.893535E-1,-6.451161E-1,-4.3089092E-1,-4.0104143E-2,7.597519E-3,1.1157362E-2,-3.0499505E-2,6.688521E-3,1.0665344E-2,-4.0933045E-4,-6.284239E-3,-3.9915413E-2,9.247555E-3,-2.703901E-2,1.04523515E-2,1.7241905E-3,5.0700936E-3,-3.8751848E-2,7.73551E-3,-1.2589013E-2,3.0502628E-3,-4.200202E-2,-1.0117986E-2,-3.708711E-2,-6.345882E-4,-3.678497E-2,7.5398246E-3,-3.6117166E-2,2.7242813E-3,1.1042623E-2,-2.8033534E-3,9.5554935E-3],"split_indices":[9,6,41,29,15,13,35,32,13,0,10,29,40,18,0,34,8,0,0,41,0,26,0,0,0,8,14,27,8,0,0,0,26,6,1,2,0,38,16,42,1,0,0,1,0,10,21,3,15,11,0,15,2,6,8,8,0,0,0,0,0,0,0,0,0,0,0,0,0,0,0,0,0,0,0,0,0,0,0,0,0,0,0,0,0],"split_type":[0,0,0,0,0,0,0,0,0,0,0,0,0,0,0,0,0,0,0,0,0,0,0,0,0,0,0,0,0,0,0,0,0,0,0,0,0,0,0,0,0,0,0,0,0,0,0,0,0,0,0,0,0,0,0,0,0,0,0,0,0,0,0,0,0,0,0,0,0,0,0,0,0,0,0,0,0,0,0,0,0,0,0,0,0],"sum_hessian":[1.1193326E3,7.8756854E2,3.3176413E2,7.101135E2,7.745502E1,1.7967416E2,1.5208997E2,7.0400543E2,6.1081104E0,3.5452342E0,7.390978E1,1.7238962E2,7.2845464E0,1.3980534E2,1.2284623E1,6.9829E2,5.7154593E0,2.744036E0,3.3640747E0,7.06934E1,3.2163868E0,1.702847E2,2.1049132E0,5.869843E0,1.4147031E0,8.834875E1,5.1456593E1,6.9460645E2,3.683526E0,2.8070586E0,2.9084005E0,3.9909164E1,3.0784233E1,1.4741707E2,2.2867624E1,8.203439E1,6.314355E0,4.0654648E1,1.0801946E1,6.919154E2,2.6910448E0,2.334539E0,1.3489871E0,3.793906E1,1.9701023E0,1.0772682E1,2.001155E1,1.2838686E2,1.9030216E1,1.8841974E1,4.0256495E0,4.0561592E1,4.1472797E1,1.0686218E1,2.996843E1,5.8729806E0,4.928965E0,2.713232E2,4.205922E2,1.3878709E0,1.3031739E0,3.6348236E1,1.5908253E0,7.3324833E0,3.440199E0,1.892262E1,1.0889297E0,1.1932627E2,9.060586E0,1.7039307E1,1.9909102E0,1.6507708E1,2.334267E0,1.4745632E0,2.5510862E0,2.803591E1,1.25256815E1,3.8370613E1,3.1021855E0,8.542472E0,2.1437461E0,4.627434E0,2.5340996E1,1.8304663E0,4.042515E0],"tree_param":{"num_deleted":"0","num_feature":"43","num_nodes":"85","size_leaf_vector":"1"}},{"base_weights":[4.9762768E-1,8.083122E-1,-2.747965E-1,8.455191E-1,-2.0765684E0,-1.2516618E0,5.011367E-1,8.798544E-1,-1.8341256E0,-3.847948E-2,4.0346846E-1,-1.9206516E0,-4.818863E-2,6.713038E-1,-3.7691336E-2,9.153023E-1,-1.1499934E0,-3.0866778E-1,-3.5837267E-2,8.4658535E-3,-3.10561E-3,-2.4592595E0,-9.5357955E-2,4.268957E-1,-2.320778E0,7.176289E-1,-2.8753392E-2,9.442142E-1,-1.3558726E0,2.8048837E-1,-3.824185E-2,-1.098686E0,4.382546E-1,-2.0847006E0,-4.157131E-2,-3.0724376E-2,3.206493E-1,-2.9441608E-2,6.2703013E-1,6.4779804E-3,-3.808073E-2,8.099705E-1,-7.7957517E-1,9.552434E-1,-2.766665E-2,-2.6792042E0,3.887402E-1,9.396381E-1,-2.6306743E-2,6.9399932E-3,-2.5651723E-2,7.2802505E-3,5.6758174E-5,-1.6136773E0,-3.6118982E0,-1.4393663E0,6.8519324E-1,1.1288843E-2,9.8777145E-2,9.2948127E-1,-2.6587498E-1,6.717829E-1,-3.816586E-2,1.0207282E-2,3.0659495E-3,4.5930868E-4,-3.8282856E-2,8.53364E-3,-3.8132095E-3,2.9700552E-3,1.0247142E-2,-1.1171786E-2,-3.3606444E-2,-4.148005E-2,-4.600857E-3,-2.8603878E-2,6.8274853E-3,9.723546E-3,-2.8609713E-3,6.5827495E-3,-1.0395303E-2,-8.9056855E-3,9.599546E-3,3.9372104E-3,-3.6942996E-2,-3.0811196E-3,9.984707E-3],"categories":[],"categories_nodes":[],"categories_segments":[],"categories_sizes":[],"default_left":[0,0,0,0,0,0,0,0,0,0,0,0,0,0,0,0,0,0,0,0,0,0,0,0,0,0,0,0,0,0,0,0,0,0,0,0,0,0,0,0,0,0,0,0,0,0,0,0,0,0,0,0,0,0,0,0,0,0,0,0,0,0,0,0,0,0,0,0,0,0,0,0,0,0,0,0,0,0,0,0,0,0,0,0,0,0,0],"id":11,"left_children":[1,3,5,7,9,11,13,15,17,-1,19,21,23,25,-1,27,29,31,-1,-1,-1,33,35,37,39,41,-1,43,45,47,-1,49,51,53,-1,-1,55,-1,57,-1,-1,59,61,63,-1,65,67,69,-1,-1,-1,-1,-1,71,73,75,77,-1,79,81,83,85,-1,-1,-1,-1,-1,-1,-1,-1,-1,-1,-1,-1,-1,-1,-1,-1,-1,-1,-1,-1,-1,-1,-1,-1,-1],"loss_changes":[2.732894E2,8.8885376E1,2.4859355E2,7.541278E1,4.8229847E1,1.1673314E2,1.355343E2,5.8086E1,2.6842628E1,0E0,1.9499991E0,9.142795E1,5.807143E1,3.1122803E1,0E0,5.247113E1,5.4810455E1,4.428284E0,0E0,0E0,0E0,3.709201E1,2.858361E1,3.191723E1,4.351258E1,2.4879745E1,0E0,3.4172974E1,2.4613085E1,2.1821472E1,0E0,1.1075235E1,5.1642656E-1,3.8018646E1,0E0,0E0,1.4111761E1,0E0,1.1261156E1,0E0,0E0,2.155085E1,4.9720516E1,3.234485E1,0E0,1.875335E1,2.2135408E0,1.8546057E-1,0E0,0E0,0E0,0E0,0E0,3.822049E1,2.1005081E1,1.3510714E1,5.1940107E0,0E0,1.4692792E1,9.138184E0,4.067405E1,2.897198E0,0E0,0E0,0E0,0E0,0E0,0E0,0E0,0E0,0E0,0E0,0E0,0E0,0E0,0E0,0E0,0E0,0E0,0E0,0E0,0E0,0E0,0E0,0E0,0E0,0E0],"parents":[2147483647,0,0,1,1,2,2,3,3,4,4,5,5,6,6,7,7,8,8,10,10,11,11,12,12,13,13,15,15,16,16,17,17,21,21,22,22,23,23,24,24,25,25,27,27,28,28,29,29,31,31,32,32,33,33,36,36,38,38,41,41,42,42,43,43,45,45,46,46,47,47,53,53,54,54,55,55,56,56,58,58,59,59,60,60,61,61],"right_children":[2,4,6,8,10,12,14,16,18,-1,20,22,24,26,-1,28,30,32,-1,-1,-1,34,36,38,40,42,-1,44,46,48,-1,50,52,54,-1,-1,56,-1,58,-1,-1,60,62,64,-1,66,68,70,-1,-1,-1,-1,-1,72,74,76,78,-1,80,82,84,86,-1,-1,-1,-1,-1,-1,-1,-1,-1,-1,-1,-1,-1,-1,-1,-1,-1,-1,-1,-1,-1,-1,-1,-1,-1],"split_conditions":[2.4742982E-1,2.0855198E0,5.0821397E-3,1E0,1.8970672E0,3.3463622E-3,9.312677E-1,1E0,-3.2705367E-1,-3.847948E-2,-1.203111E0,2.7444651E-3,4.6699032E-1,9.966536E-1,-3.7691336E-2,1E0,9.2404175E-1,-1.0523645E0,-3.5837267E-2,8.4658535E-3,-3.10561E-3,3.6442095E-1,-6.1095613E-1,-9.873839E-1,-4.6174037E-1,7.925971E-1,-2.8753392E-2,7.949224E-1,5.0821397E-3,1.779343E-1,-3.824185E-2,-1.0749451E0,-6.3938534E-1,2.5369203E-1,-4.157131E-2,-3.0724376E-2,-7.475039E-1,-2.9441608E-2,8.9743614E-1,6.4779804E-3,-3.808073E-2,1.098114E0,-6.04675E-1,1.1535263E0,-2.766665E-2,-1.5288521E0,-2.0475538E-1,5.0821397E-3,-2.6306743E-2,6.9399932E-3,-2.5651723E-2,7.2802505E-3,5.6758174E-5,7.8605527E-1,1.846558E-1,4.5532164E-1,3.815813E-1,1.1288843E-2,-6.5621865E-1,-1.2712643E0,4.1381216E-1,1.1793901E0,-3.816586E-2,1.0207282E-2,3.0659495E-3,4.5930868E-4,-3.8282856E-2,8.53364E-3,-3.8132095E-3,2.9700552E-3,1.0247142E-2,-1.1171786E-2,-3.3606444E-2,-4.148005E-2,-4.600857E-3,-2.8603878E-2,6.8274853E-3,9.723546E-3,-2.8609713E-3,6.5827495E-3,-1.0395303E-2,-8.9056855E-3,9.599546E-3,3.9372104E-3,-3.6942996E-2,-3.0811196E-3,9.984707E-3],"split_indices":[9,7,42,33,13,18,13,29,8,0,1,25,14,29,0,17,40,8,0,0,0,10,13,15,16,7,0,34,42,3,0,1,0,6,0,0,8,0,18,0,0,3,6,6,0,6,15,42,0,0,0,0,0,14,7,12,8,0,3,1,1,0,0,0,0,0,0,0,0,0,0,0,0,0,0,0,0,0,0,0,0,0,0,0,0,0,0],"split_type":[0,0,0,0,0,0,0,0,0,0,0,0,0,0,0,0,0,0,0,0,0,0,0,0,0,0,0,0,0,0,0,0,0,0,0,0,0,0,0,0,0,0,0,0,0,0,0,0,0,0,0,0,0,0,0,0,0,0,0,0,0,0,0,0,0,0,0,0,0,0,0,0,0,0,0,0,0,0,0,0,0,0,0,0,0,0,0],"sum_hessian":[1.136874E3,8.10734E2,3.2613998E2,8.011089E2,9.625172E0,1.4410506E2,1.8203493E2,7.91637E2,9.471867E0,5.293028E0,4.332144E0,9.223648E1,5.1868576E1,1.7586946E2,6.1654706E0,7.785893E2,1.3047697E1,5.6885257E0,3.783341E0,2.558641E0,1.7735028E0,7.0952484E1,2.1283997E1,4.357201E1,8.296565E0,1.7438931E2,1.4801545E0,7.693794E2,9.209883E0,9.08373E0,3.9639673E0,2.5356374E0,3.1528885E0,5.9954132E1,1.0998349E1,1.8266157E0,1.945738E1,1.6734565E0,4.1898552E1,2.9576569E0,5.3389087E0,1.6469084E2,9.698466E0,7.678399E2,1.5395353E0,4.9326477E0,4.2772355E0,7.9588947E0,1.1248354E0,1.3779466E0,1.1576906E0,1.4790994E0,1.673789E0,4.73935E1,1.2560634E1,2.8327036E0,1.6624676E1,2.0903072E1,2.0995481E1,1.4834763E2,1.6343216E1,7.08934E0,2.6091259E0,6.969092E2,7.093067E1,1.7477506E0,3.1848972E0,2.6002018E0,1.6770337E0,1.4555186E0,6.503376E0,3.8181564E1,9.211936E0,1.0464592E1,2.096042E0,1.4882436E0,1.3444601E0,1.2830309E1,3.794368E0,1.435933E1,6.636151E0,1.9781199E0,1.463695E2,1.4448604E1,1.8946131E0,1.786781E0,5.3025594E0],"tree_param":{"num_deleted":"0","num_feature":"43","num_nodes":"87","size_leaf_vector":"1"}},{"base_weights":[4.8096892E-1,-1.0784217E-1,8.935376E-1,3.94994E-1,-1.0657492E0,6.594183E-1,1.1682954E-2,5.271614E-1,-2.9334056E0,-7.9418206E-1,-3.809779E-2,9.561867E-1,1.3176316E-1,7.0991516E-1,-1.3910478E0,-4.028654E-2,-6.3454765E-1,-1.382383E0,2.3293675E-1,9.893522E-1,-2.622947E-2,4.4465238E-1,-1.790653E0,7.670259E-1,-1.6173397E0,-9.292006E-2,-3.5866313E0,-2.3366928E-2,3.8868496E-1,-2.292771E0,-5.6664217E-1,6.227368E-1,-1.123465E0,3.134713E-1,1.0331075E0,7.0657176E-1,-1.1870928E0,-4.406104E-2,-5.6759465E-1,9.468246E-1,1.8105535E-1,8.843454E-3,-3.6038056E-2,-2.4375644E0,7.2998047E-1,-4.400528E-2,6.98333E-3,-1.318896E-4,6.7734965E-3,-1.4003248E0,-3.6595569E0,-1.770024E-1,-3.8072508E-2,7.8430074E-1,-1.3682748E0,6.8307656E-1,-3.7328545E-2,8.1220645E-1,-3.3174373E-2,1.045727E0,-2.6074375E-3,7.723399E-1,-2.5511963E-2,2.3371342E-1,-4.1132305E-2,1.8256332E-1,-2.1050866E0,1.0001919E-2,1.1973216E-3,8.581697E-3,-1.3257559E-2,6.6421125E-3,-3.7992075E-2,-2.238847E-3,1.0677772E-2,-2.6878301E-2,-4.515764E-3,-4.1528583E-2,-9.055979E-3,1.0092995E-3,-3.378963E-2,-2.4391816E-3,9.4947945E-3,6.6804197E-3,-2.831056E-2,9.987292E-3,-2.4112253E-3,1.0021773E-2,-3.839693E-3,1.1255713E-2,8.256365E-3,9.486653E-3,-9.5518446E-4,-2.7123176E-2,7.9077445E-3,7.605787E-3,-1.1379762E-2,6.758258E-3,-3.4492847E-2],"categories":[],"categories_nodes":[],"categories_segments":[],"categories_sizes":[],"default_left":[0,0,0,0,0,0,0,0,0,0,0,0,0,0,0,0,0,0,0,0,0,0,0,0,0,0,0,0,0,0,0,0,0,0,0,0,0,0,0,0,0,0,0,0,0,0,0,0,0,0,0,0,0,0,0,0,0,0,0,0,0,0,0,0,0,0,0,0,0,0,0,0,0,0,0,0,0,0,0,0,0,0,0,0,0,0,0,0,0,0,0,0,0,0,0,0,0,0,0],"id":12,"left_children":[1,3,5,7,9,11,-1,13,15,17,-1,19,21,23,25,-1,27,29,31,33,-1,35,37,39,41,43,45,-1,47,49,51,53,55,57,59,61,63,-1,65,67,69,-1,-1,71,73,-1,-1,-1,-1,75,77,79,-1,81,83,85,-1,87,-1,89,-1,91,-1,93,-1,95,97,-1,-1,-1,-1,-1,-1,-1,-1,-1,-1,-1,-1,-1,-1,-1,-1,-1,-1,-1,-1,-1,-1,-1,-1,-1,-1,-1,-1,-1,-1,-1,-1],"loss_changes":[2.7210147E2,2.230549E2,4.1588074E1,1.3520444E2,1.1574188E2,5.5908234E1,0E0,1.03728455E2,2.7044281E1,8.8703316E1,0E0,2.9762344E1,7.897409E1,3.6893326E1,7.328998E1,0E0,9.58301E0,6.7888336E1,2.9317213E1,6.4038086E0,0E0,4.895346E1,5.633149E1,2.7484589E1,3.671503E1,3.5081043E1,3.6453262E1,0E0,4.6925735E-1,4.8179474E1,6.3046185E1,1.4804403E1,6.1186646E1,3.0341791E1,3.7541351E0,2.288934E1,6.724948E1,0E0,1.6161686E1,8.735916E0,6.528272E1,0E0,0E0,2.2435068E1,4.6036124E0,0E0,0E0,0E0,0E0,3.3058548E1,1.8848526E1,4.1363964E1,0E0,7.0453033E0,1.251996E1,2.6316648E0,0E0,3.6177244E0,0E0,2.7849884E0,0E0,1.4853043E1,0E0,2.1311686E1,0E0,8.585411E0,1.9397493E1,0E0,0E0,0E0,0E0,0E0,0E0,0E0,0E0,0E0,0E0,0E0,0E0,0E0,0E0,0E0,0E0,0E0,0E0,0E0,0E0,0E0,0E0,0E0,0E0,0E0,0E0,0E0,0E0,0E0,0E0,0E0,0E0],"parents":[2147483647,0,0,1,1,2,2,3,3,4,4,5,5,7,7,8,8,9,9,11,11,12,12,13,13,14,14,16,16,17,17,18,18,19,19,21,21,22,22,23,23,24,24,25,25,26,26,28,28,29,29,30,30,31,31,32,32,33,33,34,34,35,35,36,36,38,38,39,39,40,40,43,43,44,44,49,49,50,50,51,51,53,53,54,54,55,55,57,57,59,59,61,61,63,63,65,65,66,66],"right_children":[2,4,6,8,10,12,-1,14,16,18,-1,20,22,24,26,-1,28,30,32,34,-1,36,38,40,42,44,46,-1,48,50,52,54,56,58,60,62,64,-1,66,68,70,-1,-1,72,74,-1,-1,-1,-1,76,78,80,-1,82,84,86,-1,88,-1,90,-1,92,-1,94,-1,96,98,-1,-1,-1,-1,-1,-1,-1,-1,-1,-1,-1,-1,-1,-1,-1,-1,-1,-1,-1,-1,-1,-1,-1,-1,-1,-1,-1,-1,-1,-1,-1,-1],"split_conditions":[5.0821397E-3,2.4742982E-1,7.5343633E-3,8.103293E-1,6.4650044E-4,-2.1781635E-1,1.1682954E-2,1.1535263E0,3.3463622E-3,3.3463622E-3,-3.809779E-2,9.312677E-1,1.1535263E0,7.5324625E-1,5.088137E-1,-4.028654E-2,6.5798444E-1,-1.5924369E-1,-2.532445E-1,-8.990182E-1,-2.622947E-2,9.924656E-1,6.4650044E-4,-3.268172E-1,-1.1703254E0,5.0821397E-3,1.8299671E0,-2.3366928E-2,-4.006078E-2,5.669767E-2,1.6937311E0,1.3638245E0,-7.571373E-1,-6.0214233E-1,1.4927255E-1,8.649987E-1,-3.7978646E-1,-4.406104E-2,5.2371633E-1,9.1211236E-1,3.1300518E-1,8.843454E-3,-3.6038056E-2,-1.9235109E0,2.444458E-1,-4.400528E-2,6.98333E-3,-1.318896E-4,6.7734965E-3,-8.990182E-1,1.2748002E0,7.146671E-1,-3.8072508E-2,-3.459337E-1,-1.5606881E0,-6.3938534E-1,-3.7328545E-2,-6.5621865E-1,-3.3174373E-2,2.4422328E-1,-2.6074375E-3,9.947E-1,-2.5511963E-2,5.0821397E-3,-4.1132305E-2,7.004041E-1,-8.9186716E-1,1.0001919E-2,1.1973216E-3,8.581697E-3,-1.3257559E-2,6.6421125E-3,-3.7992075E-2,-2.238847E-3,1.0677772E-2,-2.6878301E-2,-4.515764E-3,-4.1528583E-2,-9.055979E-3,1.0092995E-3,-3.378963E-2,-2.4391816E-3,9.4947945E-3,6.6804197E-3,-2.831056E-2,9.987292E-3,-2.4112253E-3,1.0021773E-2,-3.839693E-3,1.1255713E-2,8.256365E-3,9.486653E-3,-9.5518446E-4,-2.7123176E-2,7.9077445E-3,7.605787E-3,-1.1379762E-2,6.758258E-3,-3.4492847E-2],"split_indices":[42,9,41,10,35,0,0,6,18,18,0,13,6,17,21,0,8,2,14,2,0,26,24,0,0,26,0,0,2,15,2,10,7,7,29,29,9,0,0,35,12,0,0,0,13,0,0,0,0,2,14,8,0,15,3,0,0,3,0,9,0,39,0,39,0,39,7,0,0,0,0,0,0,0,0,0,0,0,0,0,0,0,0,0,0,0,0,0,0,0,0,0,0,0,0,0,0,0,0],"split_type":[0,0,0,0,0,0,0,0,0,0,0,0,0,0,0,0,0,0,0,0,0,0,0,0,0,0,0,0,0,0,0,0,0,0,0,0,0,0,0,0,0,0,0,0,0,0,0,0,0,0,0,0,0,0,0,0,0,0,0,0,0,0,0,0,0,0,0,0,0,0,0,0,0,0,0,0,0,0,0,0,0,0,0,0,0,0,0,0,0,0,0,0,0,0,0,0,0,0,0],"sum_hessian":[1.1187084E3,4.6121234E2,6.5749603E2,3.0283313E2,1.583792E2,3.5683728E2,3.0065872E2,2.920767E2,1.0756459E1,1.452898E2,1.3089401E1,2.2786647E2,1.2897083E2,2.672453E2,2.4831379E1,6.7757974E0,3.980662E0,9.216418E1,5.3125618E1,2.264913E2,1.37517E0,1.11579094E2,1.7391726E1,2.6149857E2,5.7467427E0,1.6260036E1,8.571343E0,1.0125873E0,2.9680748E0,4.269962E1,4.9464558E1,4.1686672E1,1.1438944E1,1.4267508E1,2.122238E2,9.6634766E1,1.4944333E1,4.7122583E0,1.2679466E1,1.9962878E2,6.1869774E1,2.7890835E0,2.957659E0,3.7144632E0,1.2545572E1,7.1804934E0,1.39085E0,1.6396682E0,1.3284066E0,2.705713E1,1.5642489E1,4.509688E1,4.367676E0,3.9118423E1,2.5682495E0,7.1955323E0,4.2434115E0,1.3226981E1,1.0405269E0,2.103638E2,1.8600014E0,9.547032E1,1.164439E0,1.0679135E1,4.265198E0,9.113941E0,3.5655255E0,1.8733209E2,1.22967005E1,4.298439E1,1.8885382E1,1.2894167E0,2.4250467E0,3.3691206E0,9.176453E0,1.0701526E1,1.6355606E1,1.2835397E1,2.8070927E0,4.238621E1,2.7106729E0,5.34842E0,3.3770004E1,1.3007714E0,1.2674782E0,5.303517E0,1.8920155E0,1.1554183E1,1.6727979E0,1.5134486E2,5.9018932E1,7.927139E1,1.6198927E1,1.08295E0,9.596186E0,6.6341405E0,2.4798007E0,1.3238785E0,2.241647E0],"tree_param":{"num_deleted":"0","num_feature":"43","num_nodes":"99","size_leaf_vector":"1"}},{"base_weights":[4.895488E-1,-1.1298363E-1,8.995401E-1,3.950876E-1,-1.1181513E0,9.889913E-1,2.2613305E-1,5.378786E-1,-3.4614723E0,-8.496416E-1,-3.7275348E-2,1.0090224E0,-1.1780707E0,7.5176954E-1,-1.1740285E0,8.1382763E-1,-3.6410066E-1,-3.051002E-4,-4.0420335E-2,-1.3645741E0,9.326515E-2,1.0273148E0,-4.3888983E-1,-3.156685E-2,8.683819E-3,-1.2625774E0,9.506882E-1,-2.374832E0,1.0356397E-2,9.0795493E-1,-1.250188E-1,-2.3303409E0,6.6394484E-1,-8.6191607E-1,-2.8167024E0,6.038391E-1,-1.9268535E0,1.0414937E0,-4.7095528E-1,-3.1155393E-2,9.779655E-3,-3.1786203E-2,8.40172E-3,1.0340002E0,-2.7872962E-1,-2.5809386E-1,-4.1118193E-2,9.863199E-1,-1.3234787E-1,3.1763825E-1,-3.4306433E-2,-3.01664E0,6.079882E-1,-2.8844493E-2,8.4352136E-1,-5.9542954E-1,-3.811193E-2,-3.5521138E0,-1.4873431E0,7.59591E-1,-2.6053108E-2,-3.8016275E-2,4.403606E-1,1.0524226E0,-1.8468183E-1,7.3761743E-1,-2.996475E-2,-7.901306E-4,1.069963E0,-8.871528E-3,6.50605E-3,-1.4138184E0,5.72057E-1,-1.3026885E-2,1.0208019E-2,6.6574397E-3,-2.3226976E-2,-1.1968825E-2,7.876338E-3,-1.2218263E-2,-4.4997316E-2,-1.2359268E-4,8.815703E-3,6.2394683E-4,1.1394089E-2,-1.0148401E-4,-1.5824975E-2,-4.0427778E-2,-8.600944E-3,-1.386088E-4,-3.38588E-2,-3.0134546E-4,1.07338065E-2,-2.2941662E-3,8.56886E-3,1.0932595E-2,7.4575543E-3,6.0633016E-3,-1.0644096E-2,8.478E-3,2.6460153E-3,1.1032514E-2,4.4622417E-3,6.5644276E-3,-2.8744502E-2,-8.614101E-4,8.66872E-3],"categories":[],"categories_nodes":[],"categories_segments":[],"categories_sizes":[],"default_left":[0,0,0,0,0,0,0,0,0,0,0,0,0,0,0,0,0,0,0,0,0,0,0,0,0,0,0,0,0,0,0,0,0,0,0,0,0,0,0,0,0,0,0,0,0,0,0,0,0,0,0,0,0,0,0,0,0,0,0,0,0,0,0,0,0,0,0,0,0,0,0,0,0,0,0,0,0,0,0,0,0,0,0,0,0,0,0,0,0,0,0,0,0,0,0,0,0,0,0,0,0,0,0,0,0,0,0],"id":13,"left_children":[1,3,5,7,9,11,13,15,17,19,-1,21,23,25,27,29,31,-1,-1,33,35,37,39,-1,-1,41,43,45,-1,47,49,51,53,55,57,59,61,63,65,-1,-1,-1,-1,67,69,71,-1,73,75,77,-1,79,81,-1,83,85,-1,87,89,91,-1,-1,93,95,97,99,-1,-1,101,-1,-1,103,105,-1,-1,-1,-1,-1,-1,-1,-1,-1,-1,-1,-1,-1,-1,-1,-1,-1,-1,-1,-1,-1,-1,-1,-1,-1,-1,-1,-1,-1,-1,-1,-1,-1,-1],"loss_changes":[2.793564E2,2.3465971E2,4.0304443E1,1.7002893E2,1.04903595E2,2.695691E1,5.9899628E1,7.3807045E1,2.1862366E1,6.865966E1,0E0,1.6043762E1,2.6623764E1,2.4805565E1,6.157003E1,2.0126251E1,1.4280081E2,0E0,0E0,6.425563E1,5.355142E1,1.2847534E1,3.3559246E1,0E0,0E0,2.573328E1,5.8383293E0,5.3124435E1,0E0,1.6920044E1,3.2571453E1,5.0663193E1,3.216887E1,5.220117E1,1.725177E1,2.2624989E1,4.8211014E1,7.920532E0,2.0956509E1,0E0,0E0,0E0,0E0,2.1243362E0,2.9670484E0,8.205526E0,0E0,1.645578E1,2.830756E1,1.5100251E1,0E0,4.719899E1,9.302478E-1,0E0,1.03738365E1,3.7389538E1,0E0,1.5174133E1,2.7732801E1,9.986372E0,0E0,0E0,1.7394952E0,6.3428955E0,4.7816763E0,3.3987522E-2,0E0,0E0,5.3412247E-1,0E0,0E0,1.2503388E1,1.0834603E0,0E0,0E0,0E0,0E0,0E0,0E0,0E0,0E0,0E0,0E0,0E0,0E0,0E0,0E0,0E0,0E0,0E0,0E0,0E0,0E0,0E0,0E0,0E0,0E0,0E0,0E0,0E0,0E0,0E0,0E0,0E0,0E0,0E0,0E0],"parents":[2147483647,0,0,1,1,2,2,3,3,4,4,5,5,6,6,7,7,8,8,9,9,11,11,12,12,13,13,14,14,15,15,16,16,19,19,20,20,21,21,22,22,25,25,26,26,27,27,29,29,30,30,31,31,32,32,33,33,34,34,35,35,36,36,37,37,38,38,43,43,44,44,45,45,47,47,48,48,49,49,51,51,52,52,54,54,55,55,57,57,58,58,59,59,62,62,63,63,64,64,65,65,68,68,71,71,72,72],"right_children":[2,4,6,8,10,12,14,16,18,20,-1,22,24,26,28,30,32,-1,-1,34,36,38,40,-1,-1,42,44,46,-1,48,50,52,54,56,58,60,62,64,66,-1,-1,-1,-1,68,70,72,-1,74,76,78,-1,80,82,-1,84,86,-1,88,90,92,-1,-1,94,96,98,100,-1,-1,102,-1,-1,104,106,-1,-1,-1,-1,-1,-1,-1,-1,-1,-1,-1,-1,-1,-1,-1,-1,-1,-1,-1,-1,-1,-1,-1,-1,-1,-1,-1,-1,-1,-1,-1,-1,-1,-1],"split_conditions":[5.0821397E-3,2.4742982E-1,4.6616694E-1,8.103293E-1,6.4650044E-4,1.0265944E0,2.0619008E-1,-3.9237395E-1,-1.7675704E0,3.3463622E-3,-3.7275348E-2,9.966536E-1,2.2171827E-1,2.5950244E-3,7.5343633E-3,1.098114E0,5.0821397E-3,-3.051002E-4,-4.0420335E-2,9.3107843E-1,-2.532445E-1,9.891849E-1,7.5343633E-3,-3.156685E-2,8.683819E-3,2.307384E-3,1.5639947E-1,-8.3392215E-1,1.0356397E-2,9.6612084E-1,-2.532445E-1,1.2052106E0,-7.625252E-1,1.2437233E0,2.7815512E-1,1.3638245E0,2.3752358E-4,1.7952821E0,-1.5606881E0,-3.1155393E-2,9.779655E-3,-3.1786203E-2,8.40172E-3,-5.0174385E-1,-2.9268357E-1,-1.1721952E0,-4.1118193E-2,-1.2945105E0,3.527602E-1,-1.1721952E0,-3.4306433E-2,-3.797785E-1,1.6809373E0,-2.8844493E-2,-8.97181E-1,-7.191337E-2,-3.811193E-2,1.4857359E0,-5.390136E-1,1.9537276E-2,-2.6053108E-2,-3.8016275E-2,5.000037E-1,3.211939E-1,-1.2801121E0,5.0821397E-3,-2.996475E-2,-7.901306E-4,1E0,-8.871528E-3,6.50605E-3,-7.231717E-1,-4.858424E-1,-1.3026885E-2,1.0208019E-2,6.6574397E-3,-2.3226976E-2,-1.1968825E-2,7.876338E-3,-1.2218263E-2,-4.4997316E-2,-1.2359268E-4,8.815703E-3,6.2394683E-4,1.1394089E-2,-1.0148401E-4,-1.5824975E-2,-4.0427778E-2,-8.600944E-3,-1.386088E-4,-3.38588E-2,-3.0134546E-4,1.07338065E-2,-2.2941662E-3,8.56886E-3,1.0932595E-2,7.4575543E-3,6.0633016E-3,-1.0644096E-2,8.478E-3,2.6460153E-3,1.1032514E-2,4.4622417E-3,6.5644276E-3,-2.8744502E-2,-8.614101E-4,8.66872E-3],"split_indices":[42,9,10,10,35,13,9,16,5,18,0,29,10,19,41,3,39,0,0,24,14,17,41,0,0,36,11,16,0,39,14,0,0,4,3,10,37,5,3,0,0,0,0,7,9,13,0,8,5,13,0,8,0,0,9,11,0,9,0,38,0,0,4,0,8,26,0,0,32,0,0,7,7,0,0,0,0,0,0,0,0,0,0,0,0,0,0,0,0,0,0,0,0,0,0,0,0,0,0,0,0,0,0,0,0,0,0],"split_type":[0,0,0,0,0,0,0,0,0,0,0,0,0,0,0,0,0,0,0,0,0,0,0,0,0,0,0,0,0,0,0,0,0,0,0,0,0,0,0,0,0,0,0,0,0,0,0,0,0,0,0,0,0,0,0,0,0,0,0,0,0,0,0,0,0,0,0,0,0,0,0,0,0,0,0,0,0,0,0,0,0,0,0,0,0,0,0,0,0,0,0,0,0,0,0,0,0,0,0,0,0,0,0,0,0,0,0],"sum_hessian":[1.1294347E3,4.5762427E2,6.718104E2,3.043797E2,1.5324457E2,5.9262164E2,7.91888E1,2.9434207E2,1.0037626E1,1.4014867E2,1.3095908E1,5.8772345E2,4.898179E0,5.791132E1,2.127748E1,2.2546245E2,6.887963E1,1.6050084E0,8.432617E0,9.0356636E1,4.9792027E1,5.8067786E2,7.0456047E0,2.2145367E0,2.6836424E0,4.724233E0,5.3187088E1,1.3737398E1,7.540082E0,2.0494762E2,2.051483E1,2.3213917E1,4.5665714E1,6.8305916E1,2.205072E1,4.0305992E1,9.4860325E0,5.7553613E2,5.1417336E0,2.023674E0,5.0219307E0,2.2041469E0,2.5200865E0,4.996045E1,3.2266366E0,6.7095513E0,7.027847E0,1.9063887E2,1.4308751E1,1.888927E1,1.6255574E0,1.8796913E1,4.417004E0,1.4741579E0,4.4191555E1,6.374778E1,4.55814E0,1.3120379E1,8.930342E0,3.9168316E1,1.1376777E0,4.9554725E0,4.5305595E0,5.705921E2,4.9440155E0,3.9563704E0,1.1853633E0,1.526289E0,4.8434162E1,1.9774289E0,1.2492077E0,2.5108688E0,4.1986823E0,2.2833765E0,1.8835548E2,1.099763E1,3.3111212E0,4.107292E0,1.478198E1,9.32988E0,9.467032E0,1.6440179E0,2.772986E0,1.2473386E1,3.171817E1,4.0652935E1,2.3094841E1,1.0673243E1,2.4471364E0,5.595158E0,3.3351836E0,1.1394742E1,2.7773573E1,1.9094145E0,2.6211452E0,5.0127563E2,6.931649E1,2.7669091E0,2.1771061E0,2.566265E0,1.3901054E0,4.525041E1,3.1837525E0,1.2664342E0,1.2444346E0,1.5178266E0,2.6808558E0],"tree_param":{"num_deleted":"0","num_feature":"43","num_nodes":"107","size_leaf_vector":"1"}},{"base_weights":[4.9620587E-1,-5.4133132E-2,8.785488E-1,-9.631009E-1,5.654343E-1,9.010672E-1,-3.3515945E-2,-2.3731624E-1,-1.6642095E0,6.9465154E-1,-2.2478611E0,9.311322E-1,-1.8206154E0,-7.3980373E-1,1.13332905E-2,-1.1001598E0,-3.179974E0,8.3233356E-1,-8.7746483E-1,-3.8667496E-2,4.4007236E-1,9.730024E-1,-1.808326E-1,2.2631177E-1,-3.4320876E-2,8.2806575E-1,-1.0255594E0,-3.1222816E0,-5.156052E-1,-4.0616605E-2,-1.5333467E0,8.746597E-1,-1.0638256E0,9.8392546E-1,-2.637338E0,8.863996E-3,-3.4078287E-3,8.02437E-1,1.1642205E-2,-2.8576796E0,9.9989253E-1,-2.3730455E-3,6.945911E-3,1.073446E-2,-2.6392504E-3,-3.3092399E0,-5.9964937E-1,-1.2454149E0,-4.0094648E-2,-2.124091E0,1.1955615E-1,-3.2042135E-2,-1.3854548E-1,9.086167E-1,-1.478497E0,8.785813E-3,-3.1294413E-2,1.0576977E-2,2.6825527E-3,9.299139E-3,-4.526233E-2,8.244801E-1,-2.7514666E-2,-3.6177985E-2,6.4663035E-3,1.1053762E-2,-6.342174E-4,6.533196E-3,-4.0350128E-2,-1.8850422E-2,3.347461E-3,6.574423E-3,-3.0547665E-2,-6.6523426E-3,-3.0486578E-2,4.269947E-3,-3.1817734E-2,8.8830255E-3,-1.1018078E-2,1.1600711E-2,7.301939E-3,3.0424553E-3,-2.740288E-2,5.4820287E-3,1.0240507E-2],"categories":[],"categories_nodes":[],"categories_segments":[],"categories_sizes":[],"default_left":[0,0,0,0,0,0,0,0,0,0,0,0,0,0,0,0,0,0,0,0,0,0,0,0,0,0,0,0,0,0,0,0,0,0,0,0,0,0,0,0,0,0,0,0,0,0,0,0,0,0,0,0,0,0,0,0,0,0,0,0,0,0,0,0,0,0,0,0,0,0,0,0,0,0,0,0,0,0,0,0,0,0,0,0,0],"id":14,"left_children":[1,3,5,7,9,11,-1,13,15,17,19,21,23,25,-1,27,29,31,33,-1,35,37,39,41,-1,43,45,47,49,-1,51,53,55,57,59,-1,-1,61,-1,63,65,-1,-1,-1,-1,67,69,71,-1,73,75,-1,77,79,81,-1,-1,-1,-1,-1,-1,83,-1,-1,-1,-1,-1,-1,-1,-1,-1,-1,-1,-1,-1,-1,-1,-1,-1,-1,-1,-1,-1,-1,-1],"loss_changes":[2.3694922E2,2.6099603E2,6.63067E1,9.518176E1,1.0176723E2,5.583667E1,0E0,6.520454E1,7.8040985E1,5.7940407E1,5.540268E1,3.067566E1,2.5738491E1,3.1758854E1,0E0,8.235702E1,3.0555084E1,2.047612E1,7.391032E1,0E0,2.2316813E0,1.9661316E1,8.065601E1,1.0921798E0,0E0,3.2814012E0,5.5208508E1,2.1202469E1,5.777622E1,0E0,2.3890877E1,2.04225E1,2.5895308E1,3.133068E-1,8.144191E1,0E0,0E0,2.866713E1,0E0,2.3098488E1,2.0690212E0,0E0,0E0,0E0,0E0,2.8581215E1,6.16212E1,2.438794E1,0E0,1.9542648E1,4.328745E1,0E0,7.6416926E0,9.740753E0,9.330243E0,0E0,0E0,0E0,0E0,0E0,0E0,1.7946396E1,0E0,0E0,0E0,0E0,0E0,0E0,0E0,0E0,0E0,0E0,0E0,0E0,0E0,0E0,0E0,0E0,0E0,0E0,0E0,0E0,0E0,0E0,0E0],"parents":[2147483647,0,0,1,1,2,2,3,3,4,4,5,5,7,7,8,8,9,9,10,10,11,11,12,12,13,13,15,15,16,16,17,17,18,18,20,20,21,21,22,22,23,23,25,25,26,26,27,27,28,28,30,30,31,31,32,32,33,33,34,34,37,37,39,39,40,40,45,45,46,46,47,47,49,49,50,50,52,52,53,53,54,54,61,61],"right_children":[2,4,6,8,10,12,-1,14,16,18,20,22,24,26,-1,28,30,32,34,-1,36,38,40,42,-1,44,46,48,50,-1,52,54,56,58,60,-1,-1,62,-1,64,66,-1,-1,-1,-1,68,70,72,-1,74,76,-1,78,80,82,-1,-1,-1,-1,-1,-1,84,-1,-1,-1,-1,-1,-1,-1,-1,-1,-1,-1,-1,-1,-1,-1,-1,-1,-1,-1,-1,-1,-1,-1],"split_conditions":[5.0821397E-3,2.7108993E-3,1E0,9.7506714E-1,5.9440374E-1,9.6513486E-1,-3.3515945E-2,1.1201114E-3,4.5369563E-1,1.1791139E0,1.1201114E-3,1.0265944E0,-7.274015E-1,-9.366391E-1,1.13332905E-2,-2.629809E-1,6.019754E-1,7.5324625E-1,-1.2204051E0,-3.8667496E-2,-5.8397573E-1,7.5343633E-3,2.7108993E-3,-1.0975518E0,-3.4320876E-2,-7.5582224E-1,-3.7330773E-1,-1.2521691E0,-2.227256E-1,-4.0616605E-2,1.1201114E-3,2.347936E0,-1.3385676E0,-1.0237019E-1,7.708541E-1,8.863996E-3,-3.4078287E-3,1.9974461E0,1.1642205E-2,2.0005336E0,9.731104E-1,-2.3730455E-3,6.945911E-3,1.073446E-2,-2.6392504E-3,-2.360161E0,-1.7442527E-1,-1.5606881E0,-4.0094648E-2,-9.831833E-1,1.2812288E0,-3.2042135E-2,-9.7309285E-1,9.9014837E-1,-1.4149846E0,8.785813E-3,-3.1294413E-2,1.0576977E-2,2.6825527E-3,9.299139E-3,-4.526233E-2,2.7108993E-3,-2.7514666E-2,-3.6177985E-2,6.4663035E-3,1.1053762E-2,-6.342174E-4,6.533196E-3,-4.0350128E-2,-1.8850422E-2,3.347461E-3,6.574423E-3,-3.0547665E-2,-6.6523426E-3,-3.0486578E-2,4.269947E-3,-3.1817734E-2,8.8830255E-3,-1.1018078E-2,1.1600711E-2,7.301939E-3,3.0424553E-3,-2.740288E-2,5.4820287E-3,1.0240507E-2],"split_indices":[42,40,34,21,10,33,0,21,1,3,31,13,4,7,0,4,8,17,12,0,11,41,40,4,0,13,15,4,15,0,31,11,1,13,40,0,0,7,0,0,26,0,0,0,0,12,10,3,0,1,7,0,0,40,4,0,0,0,0,0,0,40,0,0,0,0,0,0,0,0,0,0,0,0,0,0,0,0,0,0,0,0,0,0,0],"split_type":[0,0,0,0,0,0,0,0,0,0,0,0,0,0,0,0,0,0,0,0,0,0,0,0,0,0,0,0,0,0,0,0,0,0,0,0,0,0,0,0,0,0,0,0,0,0,0,0,0,0,0,0,0,0,0,0,0,0,0,0,0,0,0,0,0,0,0,0,0,0,0,0,0,0,0,0,0,0,0,0,0,0,0,0,0],"sum_hessian":[1.124861E3,4.6147653E2,6.633844E2,1.8682742E2,2.746491E2,6.606545E2,2.7298882E0,9.2455925E1,9.43715E1,2.633082E2,1.1340909E1,6.5408704E2,6.5674605E0,6.799043E1,2.4465487E1,7.003553E1,2.4335968E1,2.425379E2,2.0770298E1,6.804273E0,4.536636E0,6.3047205E2,2.3614992E1,3.2714965E0,3.2959642E0,1.01888685E1,5.7801567E1,1.4732117E1,5.530341E1,1.4894208E1,9.44176E0,2.3776913E2,4.7687683E0,1.03082905E1,1.04620075E1,2.8006525E0,1.7359834E0,3.359781E2,2.9449396E2,6.7933555E0,1.6821636E1,1.891788E0,1.3797085E0,8.333285E0,1.855583E0,8.021485E0,4.9780083E1,5.500148E0,9.23197E0,1.4992401E1,4.031101E1,3.705543E0,5.736217E0,2.3499197E2,2.7771568E0,2.7538462E0,2.014922E0,8.911743E0,1.3965482E0,3.797665E0,6.6643424E0,3.346703E2,1.3077899E0,5.5558515E0,1.2375038E0,1.52675E1,1.5541356E0,1.2572129E0,6.764272E0,2.052612E1,2.9253963E1,2.9911063E0,2.5090415E0,6.482808E0,8.509593E0,3.7673313E1,2.637693E0,2.814136E0,2.9220808E0,9.52511E1,1.3974088E2,1.4654912E0,1.3116655E0,1.419322E2,1.927381E2],"tree_param":{"num_deleted":"0","num_feature":"43","num_nodes":"85","size_leaf_vector":"1"}},{"base_weights":[4.8678732E-1,-9.7245365E-2,8.9004624E-1,3.8650715E-1,-1.0339215E0,9.2082494E-1,-1.5116365E0,5.993114E-1,-1.5138642E0,-1.9235531E0,-2.7685147E-2,9.4024044E-1,-1.9301906E0,1.1159612E-1,-3.390416E-2,8.5173887E-1,-1.8573773E-1,-4.0550254E-2,-9.6011706E-2,-2.7173853E0,-4.230544E-1,-1.6518096E0,5.3346E-1,9.8206526E-1,-1.19616926E-1,-3.1520195E-2,6.8355934E-3,-7.9485625E-3,8.559071E-3,9.320697E-1,-3.2889125E-1,3.660039E-2,-3.119457E-2,-3.2417323E-2,5.710833E-1,-1.664213E-1,-3.233283E0,1.0930904E-2,-1.7716997E0,-3.0379014E0,1.0200753E-2,7.80463E-1,-1.0765289E0,1.0430638E0,4.3611103E-1,6.5921974E-1,-3.2386962E-2,1.0184525E0,9.746322E-2,-2.826116E0,9.572969E-1,2.9189917E-1,-2.5413568E0,-3.6008853E-1,1.0050334E0,-2.6802387E-2,6.0619915E-1,-3.3657792E0,-2.0050535E-3,-8.229305E-1,-3.718841E-2,-4.0259007E-2,-9.73052E-1,-1.1708417E0,9.063894E-1,-3.4905355E-2,6.2211937E-1,1.077465E0,5.182546E-1,-3.3988107E-2,5.7561535E-1,9.596978E-1,-1.2857153E0,1.0501727E-2,4.9532196E-3,-1.7902091E-2,5.598209E-3,-4.0702466E-2,-3.2862097E-3,1.0385916E-2,2.63209E-3,4.2286906E-3,-2.8514968E-2,-3.6258876E-2,3.3044084E-3,4.2748973E-3,-2.305873E-2,2.7837637E-3,1.0718785E-2,1.0163478E-2,-4.51203E-3,-2.1279056E-2,-3.9272733E-2,-2.0367827E-3,-2.9973162E-2,3.9611612E-3,-2.7274545E-2,6.6148727E-3,-2.566937E-2,-9.33142E-3,1.0236548E-2,8.881687E-3,1.3410223E-4,1.08737415E-2,3.3003315E-3,8.277795E-3,-1.42861875E-2,7.1897265E-3,-3.0493073E-2,1.102571E-2,-1.8172498E-3,-2.7518593E-2,6.453879E-3],"categories":[],"categories_nodes":[],"categories_segments":[],"categories_sizes":[],"default_left":[0,0,0,0,0,0,0,0,0,0,0,0,0,0,0,0,0,0,0,0,0,0,0,0,0,0,0,0,0,0,0,0,0,0,0,0,0,0,0,0,0,0,0,0,0,0,0,0,0,0,0,0,0,0,0,0,0,0,0,0,0,0,0,0,0,0,0,0,0,0,0,0,0,0,0,0,0,0,0,0,0,0,0,0,0,0,0,0,0,0,0,0,0,0,0,0,0,0,0,0,0,0,0,0,0,0,0,0,0,0,0,0,0],"id":15,"left_children":[1,3,5,7,9,11,13,15,17,19,21,23,25,27,-1,29,31,-1,33,35,37,39,41,43,45,-1,-1,-1,-1,47,49,51,-1,-1,53,55,57,-1,59,61,-1,63,65,67,69,71,-1,73,75,77,79,81,83,85,87,-1,89,91,-1,93,-1,-1,95,97,99,-1,101,103,105,-1,107,109,111,-1,-1,-1,-1,-1,-1,-1,-1,-1,-1,-1,-1,-1,-1,-1,-1,-1,-1,-1,-1,-1,-1,-1,-1,-1,-1,-1,-1,-1,-1,-1,-1,-1,-1,-1,-1,-1,-1,-1,-1],"loss_changes":[2.656817E2,2.0952144E2,5.071161E1,1.24278244E2,1.4089247E2,3.8313965E1,2.7279186E1,5.4666534E1,1.1132094E2,9.837305E1,6.9140465E1,2.917871E1,1.7443968E1,4.5262694E0,0E0,2.006343E1,4.430331E1,0E0,4.5762833E1,7.113187E1,6.3469467E1,7.523039E1,2.3277159E1,2.0552551E1,6.476253E1,0E0,0E0,0E0,0E0,1.39814E1,4.7704597E1,4.2838196E1,0E0,0E0,7.6815925E0,2.1464947E1,1.7505524E1,0E0,2.7066704E1,2.2757248E1,0E0,1.3223396E1,3.466816E1,9.6727295E0,3.6791958E1,1.3775497E1,0E0,2.4149628E0,1.7955252E1,1.4247677E1,2.905693E-1,2.553476E1,1.9469616E1,1.0938262E1,3.146057E-1,0E0,4.2009935E0,2.1729858E1,0E0,1.5883013E1,0E0,0E0,1.4412716E1,1.0489935E1,1.1106464E1,0E0,8.788674E-1,3.5733032E0,2.335149E1,0E0,3.528647E1,3.3251305E0,1.1116922E1,0E0,0E0,0E0,0E0,0E0,0E0,0E0,0E0,0E0,0E0,0E0,0E0,0E0,0E0,0E0,0E0,0E0,0E0,0E0,0E0,0E0,0E0,0E0,0E0,0E0,0E0,0E0,0E0,0E0,0E0,0E0,0E0,0E0,0E0,0E0,0E0,0E0,0E0,0E0,0E0],"parents":[2147483647,0,0,1,1,2,2,3,3,4,4,5,5,6,6,7,7,8,8,9,9,10,10,11,11,12,12,13,13,15,15,16,16,18,18,19,19,20,20,21,21,22,22,23,23,24,24,29,29,30,30,31,31,34,34,35,35,36,36,38,38,39,39,41,41,42,42,43,43,44,44,45,45,47,47,48,48,49,49,50,50,51,51,52,52,53,53,54,54,56,56,57,57,59,59,62,62,63,63,64,64,66,66,67,67,68,68,70,70,71,71,72,72],"right_children":[2,4,6,8,10,12,14,16,18,20,22,24,26,28,-1,30,32,-1,34,36,38,40,42,44,46,-1,-1,-1,-1,48,50,52,-1,-1,54,56,58,-1,60,62,-1,64,66,68,70,72,-1,74,76,78,80,82,84,86,88,-1,90,92,-1,94,-1,-1,96,98,100,-1,102,104,106,-1,108,110,112,-1,-1,-1,-1,-1,-1,-1,-1,-1,-1,-1,-1,-1,-1,-1,-1,-1,-1,-1,-1,-1,-1,-1,-1,-1,-1,-1,-1,-1,-1,-1,-1,-1,-1,-1,-1,-1,-1,-1,-1],"split_conditions":[5.0821397E-3,-3.9237395E-1,9.966536E-1,3.211939E-1,2.307384E-3,1E0,1.779343E-1,2.4742982E-1,8.8035065E-1,1.1201114E-3,3.6110025E-2,1.0265944E0,3.0181482E0,1.3645854E0,-3.390416E-2,9.8046273E-1,6.4650044E-4,-4.0550254E-2,-8.9602476E-1,-1.3385676E0,9.155137E-1,1.1201114E-3,9.3201435E-1,1.1535263E0,2.0619008E-1,-3.1520195E-2,6.8355934E-3,-7.9485625E-3,8.559071E-3,1.1791139E0,-5.888016E-1,2.307384E-3,-3.119457E-2,-3.2417323E-2,5.0821397E-3,-1.5030869E0,1.6941112E0,1.0930904E-2,7.8605527E-1,5.862021E-1,1.0200753E-2,-1.1496742E0,7.168586E-1,1E0,-1.3385676E0,1.0476992E0,-3.2386962E-2,1.3503785E0,-3.9892626E-1,4.5532164E-1,-4.7406024E-1,1.7023807E0,1.4857359E0,-9.5235336E-1,-9.7793424E-1,-2.6802387E-2,-7.314803E-1,-5.020391E-1,-2.0050535E-3,7.4893886E-1,-3.718841E-2,-4.0259007E-2,-1.0105112E0,-2.2600482E0,-1.5606881E0,-3.4905355E-2,-1.5606881E0,1E0,-5.236775E-1,-3.3988107E-2,5.320938E-1,-1.9491656E-1,-4.006078E-2,1.0501727E-2,4.9532196E-3,-1.7902091E-2,5.598209E-3,-4.0702466E-2,-3.2862097E-3,1.0385916E-2,2.63209E-3,4.2286906E-3,-2.8514968E-2,-3.6258876E-2,3.3044084E-3,4.2748973E-3,-2.305873E-2,2.7837637E-3,1.0718785E-2,1.0163478E-2,-4.51203E-3,-2.1279056E-2,-3.9272733E-2,-2.0367827E-3,-2.9973162E-2,3.9611612E-3,-2.7274545E-2,6.6148727E-3,-2.566937E-2,-9.33142E-3,1.0236548E-2,8.881687E-3,1.3410223E-4,1.08737415E-2,3.3003315E-3,8.277795E-3,-1.42861875E-2,7.1897265E-3,-3.0493073E-2,1.102571E-2,-1.8172498E-3,-2.7518593E-2,6.453879E-3],"split_indices":[42,16,29,0,36,34,3,9,4,31,7,13,13,2,0,35,35,0,14,1,31,21,25,6,9,0,0,0,0,3,7,36,0,0,26,1,4,0,14,0,0,4,0,38,1,14,0,4,4,12,7,9,9,6,1,0,2,1,0,4,0,0,12,5,3,0,3,17,7,0,7,4,2,0,0,0,0,0,0,0,0,0,0,0,0,0,0,0,0,0,0,0,0,0,0,0,0,0,0,0,0,0,0,0,0,0,0,0,0,0,0,0,0],"split_type":[0,0,0,0,0,0,0,0,0,0,0,0,0,0,0,0,0,0,0,0,0,0,0,0,0,0,0,0,0,0,0,0,0,0,0,0,0,0,0,0,0,0,0,0,0,0,0,0,0,0,0,0,0,0,0,0,0,0,0,0,0,0,0,0,0,0,0,0,0,0,0,0,0,0,0,0,0,0,0,0,0,0,0,0,0,0,0,0,0,0,0,0,0,0,0,0,0,0,0,0,0,0,0,0,0,0,0,0,0,0,0,0,0],"sum_hessian":[1.126714E3,4.605159E2,6.6619806E2,3.0406625E2,1.5644965E2,6.5837726E2,7.8208213E0,2.740614E2,3.0004862E1,8.255216E1,7.3897484E1,6.545897E2,3.78757E0,4.700379E0,3.1204424E0,2.073155E2,6.67459E1,1.0079604E1,1.9925257E1,5.3458954E1,2.9093212E1,1.8476692E1,5.542079E1,6.2980914E2,2.4780561E1,2.4406981E0,1.346872E0,2.0887296E0,2.611649E0,1.9430537E2,1.3010136E1,6.2961735E1,3.784164E0,2.8108892E0,1.7114368E1,9.215176E0,4.424378E1,1.3785295E1,1.5307917E1,1.2075372E1,6.4013205E0,4.8495846E1,6.924948E0,5.656945E2,6.4114624E1,2.0460266E1,4.320296E0,1.7588116E2,1.8424206E1,4.015833E0,8.994303E0,5.8095253E1,4.866484E0,5.494486E0,1.1619883E1,1.585977E0,7.6291986E0,4.228656E1,1.9572182E0,1.1249227E1,4.0586905E0,7.5250278E0,4.550344E0,2.4368944E0,4.6058952E1,2.4245079E0,4.50044E0,5.299061E2,3.5788383E1,1.4303852E0,6.268424E1,1.816108E1,2.2991858E0,1.6487633E2,1.1004839E1,3.0598423E0,1.5364365E1,2.2601864E0,1.7556465E0,7.6069956E0,1.3873068E0,5.6602383E1,1.4928703E0,3.341853E0,1.5246313E0,4.466798E0,1.0276877E0,1.4139272E0,1.02059555E1,5.524978E0,2.1042204E0,1.4690192E1,2.7596367E1,9.606908E0,1.6423188E0,2.9906228E0,1.5597211E0,1.281351E0,1.1555436E0,2.3432393E0,4.371571E1,2.8122044E0,1.6882358E0,5.2252386E2,7.382266E0,3.1375021E1,4.413364E0,6.107069E1,1.6135465E0,1.6170977E1,1.9901031E0,1.0653359E0,1.23385E0],"tree_param":{"num_deleted":"0","num_feature":"43","num_nodes":"113","size_leaf_vector":"1"}},{"base_weights":[5.032387E-1,3.5901617E-2,8.3252645E-1,1.3308552E-1,-2.7059197E0,8.6191624E-1,-1.7325191E0,2.857371E-1,-1.4021406E0,-3.925327E-2,-8.819882E-1,8.802306E-1,-2.8325912E-2,-2.4218228E0,7.2472417E-3,-4.5805458E-2,7.866114E-1,-2.815418E0,1.2501538E-1,1.5736024E-1,-2.7743777E-2,9.038388E-1,-2.004873E0,3.1570233E-3,-3.342505E-2,-5.010193E-1,5.9215873E-1,1.1531831E-2,4.935203E-1,-3.7782583E-2,4.75287E-1,6.4847004E-1,-3.13872E-2,8.589794E-3,-6.7394106E-3,9.3236804E-1,-1.0115064E0,-3.189364E-2,7.3227934E-3,-2.4159363E-1,-3.0596776E0,1.1471321E-2,5.5440165E-2,6.609198E-1,-1.0668519E0,9.020529E-3,-2.8918781E-3,-2.3006577E-2,9.538969E-1,9.469934E-1,-1.7279981E0,-3.3787906E-2,8.4309477E-1,8.5349265E-4,-1.867602E-2,6.532766E-3,-3.5045624E-2,4.0748934E-3,-1.1696069E-2,-2.4444961E-3,8.402916E-3,1.6705757E-3,-3.3848908E-2,-2.796743E-4,1.0553109E-2,1.01643E-2,4.437757E-3,6.590406E-3,-3.1846464E-2,9.405563E-3,3.0795755E-3],"categories":[],"categories_nodes":[],"categories_segments":[],"categories_sizes":[],"default_left":[0,0,0,0,0,0,0,0,0,0,0,0,0,0,0,0,0,0,0,0,0,0,0,0,0,0,0,0,0,0,0,0,0,0,0,0,0,0,0,0,0,0,0,0,0,0,0,0,0,0,0,0,0,0,0,0,0,0,0,0,0,0,0,0,0,0,0,0,0,0,0],"id":16,"left_children":[1,3,5,7,9,11,13,15,17,-1,19,21,-1,23,-1,25,27,29,31,33,-1,35,37,-1,-1,39,41,-1,43,-1,45,47,-1,-1,-1,49,51,-1,-1,53,55,-1,57,59,61,-1,-1,-1,63,65,67,-1,69,-1,-1,-1,-1,-1,-1,-1,-1,-1,-1,-1,-1,-1,-1,-1,-1,-1,-1],"loss_changes":[1.719508E2,1.2373038E2,5.0914368E1,1.0541493E2,3.1892418E1,4.639377E1,1.4896479E1,6.7856125E1,8.818467E1,0E0,1.5500753E1,4.5838104E1,0E0,1.6906563E1,0E0,7.193687E1,1.6913116E1,6.889746E1,3.7087223E1,4.0143456E0,0E0,3.601422E1,2.0351902E1,0E0,0E0,9.518025E1,3.067059E1,0E0,2.4780375E1,0E0,2.114694E0,1.8867432E1,0E0,0E0,0E0,2.6262573E1,4.6310184E1,0E0,0E0,7.048502E1,2.412175E1,0E0,2.3551786E1,1.3823631E1,2.7201935E1,0E0,0E0,0E0,1.7700748E0,2.1565857E1,1.5361992E1,0E0,4.158783E-2,0E0,0E0,0E0,0E0,0E0,0E0,0E0,0E0,0E0,0E0,0E0,0E0,0E0,0E0,0E0,0E0,0E0,0E0],"parents":[2147483647,0,0,1,1,2,2,3,3,4,4,5,5,6,6,7,7,8,8,10,10,11,11,13,13,15,15,16,16,17,17,18,18,19,19,21,21,22,22,25,25,26,26,28,28,30,30,31,31,35,35,36,36,39,39,40,40,42,42,43,43,44,44,48,48,49,49,50,50,52,52],"right_children":[2,4,6,8,10,12,14,16,18,-1,20,22,-1,24,-1,26,28,30,32,34,-1,36,38,-1,-1,40,42,-1,44,-1,46,48,-1,-1,-1,50,52,-1,-1,54,56,-1,58,60,62,-1,-1,-1,64,66,68,-1,70,-1,-1,-1,-1,-1,-1,-1,-1,-1,-1,-1,-1,-1,-1,-1,-1,-1,-1],"split_conditions":[2.7108993E-3,1.7952821E0,1E0,9.722887E-1,2.9286087E-1,1E0,1.5021672E0,1.1201114E-3,2.307384E-3,-3.925327E-2,-5.390136E-1,1E0,-2.8325912E-2,-2.360161E0,7.2472417E-3,3.3463622E-3,9.989705E-1,2.0005336E0,-7.274521E-2,-7.661247E-1,-2.7743777E-2,1E0,1.3809862E0,3.1570233E-3,-3.342505E-2,9.6855754E-1,9.97405E-1,1.1531831E-2,2.6320183E-1,-3.7782583E-2,-9.6615064E-1,1.2876303E-1,-3.13872E-2,8.589794E-3,-6.7394106E-3,2.580015E0,4.168625E-3,-3.189364E-2,7.3227934E-3,9.4207954E-1,-1.5228194E0,1.1471321E-2,1.0982168E-1,-6.323958E-1,-1.0105112E0,9.020529E-3,-2.8918781E-3,-2.3006577E-2,-5.8397573E-1,1.1791139E0,-1.4149846E0,-3.3787906E-2,-6.119932E-1,8.5349265E-4,-1.867602E-2,6.532766E-3,-3.5045624E-2,4.0748934E-3,-1.1696069E-2,-2.4444961E-3,8.402916E-3,1.6705757E-3,-3.3848908E-2,-2.796743E-4,1.0553109E-2,1.01643E-2,4.437757E-3,6.590406E-3,-3.1846464E-2,9.405563E-3,3.0795755E-3],"split_indices":[40,5,33,13,15,34,1,31,36,0,0,32,0,12,0,18,31,0,4,7,0,29,1,0,0,4,18,0,0,0,15,7,0,0,0,11,27,0,0,38,0,0,1,2,12,0,0,0,11,3,4,0,0,0,0,0,0,0,0,0,0,0,0,0,0,0,0,0,0,0,0],"split_type":[0,0,0,0,0,0,0,0,0,0,0,0,0,0,0,0,0,0,0,0,0,0,0,0,0,0,0,0,0,0,0,0,0,0,0,0,0,0,0,0,0,0,0,0,0,0,0,0,0,0,0,0,0,0,0,0,0,0,0,0,0,0,0,0,0,0,0,0,0,0,0],"sum_hessian":[1.1165677E3,4.619957E2,6.54572E2,4.470997E2,1.4895995E1,6.478135E2,6.758548E0,4.074043E2,3.9695408E1,8.236967E0,6.6590276E0,6.45376E2,2.43751E0,5.2892323E0,1.4693158E0,2.456863E2,1.6171802E2,2.0178255E1,1.951715E1,4.890104E0,1.7689236E0,6.4081903E2,4.5569596E0,1.4965478E0,3.7926843E0,1.4350453E2,1.0218176E2,7.0548195E1,9.116983E1,1.5496045E1,4.682211E0,1.7510101E1,2.0070496E0,2.633843E0,2.256261E0,6.3191974E2,8.899294E0,3.0652664E0,1.4916934E0,1.3128754E2,1.221699E1,4.9677414E1,5.2504345E1,8.285719E1,8.3126335E0,2.8893023E0,1.7929089E0,1.0301944E0,1.6479906E1,6.291052E2,2.8144627E0,3.5482845E0,5.3510094E0,1.10097626E2,2.1189915E1,1.257086E0,1.0959905E1,4.1302395E1,1.120195E1,1.3641195E1,6.9215996E1,6.03049E0,2.282143E0,1.6106119E0,1.4869295E1,5.519275E2,7.717773E1,1.2741126E0,1.5403501E0,3.8857255E0,1.4652836E0],"tree_param":{"num_deleted":"0","num_feature":"43","num_nodes":"71","size_leaf_vector":"1"}},{"base_weights":[4.9580044E-1,8.826549E-1,-5.3720936E-2,1.0402465E0,4.4734347E-1,4.015476E-1,-9.256343E-1,1.0518204E0,-8.8077515E-1,5.9743464E-1,-2.5146587E0,-5.074411E-1,8.325957E-1,-1.8789682E0,5.1209122E-2,1.065125E0,-4.276447E-1,-2.2647524E-2,6.901842E-3,6.6082454E-1,-2.9664908E-2,-3.253927E-2,7.1307695E-3,-5.6031223E-2,-2.1414027E0,8.679175E-1,-2.396951E-2,-2.5418103E0,-5.969201E-1,4.434429E-1,-3.3405488E0,1.078336E0,-7.866777E-2,8.715252E-3,-2.3762507E-2,3.5706487E-1,1.1476829E-2,-5.6068265E-1,8.584207E-1,4.2537656E-1,-2.841396E0,6.390567E-1,1.0889388E0,-3.2627766E0,-8.6160314E-1,-1.8458818E-1,-3.2351825E-2,-2.710369E-2,5.522808E-1,-4.1409187E-2,-1.2398047E0,1.0915972E0,2.4848285E-1,-2.2968123E-2,7.866141E-3,8.311247E-1,-7.950095E-1,7.311749E-2,-1.6699649E0,9.86681E-1,-6.125447E-3,-2.9314088E-3,8.597809E-3,-3.972087E-2,-6.760219E-1,7.502542E-1,-1.0594171E0,-6.681506E-4,1.1072588E0,-3.451576E0,-3.2353539E-3,2.5328082E-1,-3.2704473E-2,1.0325471E-2,-7.3502266E-1,-6.8337584E-1,8.097636E-1,3.3165095E-3,-2.4833454E-2,1.0976605E-2,-2.6583942E-3,9.869333E-3,-1.1050141E-2,1.0260968E-2,1.8386974E-3,-1.9003048E-3,-4.0490665E-2,-4.3480606E-3,1.0820194E-2,-3.5201263E-2,-9.129988E-3,-3.1657182E-4,1.0538855E-2,7.6210336E-3,-3.0251605E-2,8.355871E-3,-2.0159907E-3,-2.3229606E-2,8.277622E-3,1.1253204E-2,5.2718506E-3,-3.6433484E-2,-1.9578277E-3,-2.3565615E-2,7.499372E-3,-2.143721E-2,-2.2149177E-3,-2.390288E-2,1.0009797E-2,9.057213E-3,-3.7383803E-3],"categories":[],"categories_nodes":[],"categories_segments":[],"categories_sizes":[],"default_left":[0,0,0,0,0,0,0,0,0,0,0,0,0,0,0,0,0,0,0,0,0,0,0,0,0,0,0,0,0,0,0,0,0,0,0,0,0,0,0,0,0,0,0,0,0,0,0,0,0,0,0,0,0,0,0,0,0,0,0,0,0,0,0,0,0,0,0,0,0,0,0,0,0,0,0,0,0,0,0,0,0,0,0,0,0,0,0,0,0,0,0,0,0,0,0,0,0,0,0,0,0,0,0,0,0,0,0,0,0,0,0],"id":17,"left_children":[1,3,5,7,9,11,13,15,17,19,21,23,25,27,29,31,33,-1,-1,35,-1,-1,-1,37,39,41,-1,43,45,47,49,51,53,-1,-1,55,-1,57,59,61,63,65,67,69,71,73,-1,-1,75,-1,77,79,81,-1,-1,83,85,87,89,91,-1,-1,-1,-1,93,95,97,-1,99,101,-1,103,-1,-1,105,107,109,-1,-1,-1,-1,-1,-1,-1,-1,-1,-1,-1,-1,-1,-1,-1,-1,-1,-1,-1,-1,-1,-1,-1,-1,-1,-1,-1,-1,-1,-1,-1,-1,-1,-1],"loss_changes":[2.37026E2,4.4417725E1,1.8356233E2,1.1589783E1,7.959299E1,1.1948838E2,1.4780243E2,9.848267E0,8.991166E0,3.991224E1,2.2992794E1,7.24366E1,2.5637665E1,6.67189E1,1.0699529E2,7.2355347E0,1.4644087E1,0E0,0E0,2.4120789E1,0E0,0E0,0E0,3.652443E1,3.941941E1,9.674164E0,0E0,6.0936005E1,3.059462E1,2.6202198E1,8.885994E0,4.8777466E0,1.3966409E1,0E0,0E0,5.7239502E1,0E0,3.5931747E1,5.919058E0,1.9458815E0,3.85455E1,2.0274391E1,2.252121E0,1.91185E1,4.691153E1,1.8082644E1,0E0,0E0,2.2953007E1,0E0,8.108315E0,4.079712E0,9.740168E0,0E0,0E0,9.135174E0,5.969085E1,1.7571705E1,2.2782253E1,1.8328037E0,0E0,0E0,0E0,0E0,2.5893036E1,8.078682E0,1.8023508E1,0E0,4.6829987E-1,2.0615295E1,0E0,1.81751E1,0E0,0E0,1.2828572E1,3.885684E1,7.007824E0,0E0,0E0,0E0,0E0,0E0,0E0,0E0,0E0,0E0,0E0,0E0,0E0,0E0,0E0,0E0,0E0,0E0,0E0,0E0,0E0,0E0,0E0,0E0,0E0,0E0,0E0,0E0,0E0,0E0,0E0,0E0,0E0,0E0,0E0],"parents":[2147483647,0,0,1,1,2,2,3,3,4,4,5,5,6,6,7,7,8,8,9,9,10,10,11,11,12,12,13,13,14,14,15,15,16,16,19,19,23,23,24,24,25,25,27,27,28,28,29,29,30,30,31,31,32,32,35,35,37,37,38,38,39,39,40,40,41,41,42,42,43,43,44,44,45,45,48,48,50,50,51,51,52,52,55,55,56,56,57,57,58,58,59,59,64,64,65,65,66,66,68,68,69,69,71,71,74,74,75,75,76,76],"right_children":[2,4,6,8,10,12,14,16,18,20,22,24,26,28,30,32,34,-1,-1,36,-1,-1,-1,38,40,42,-1,44,46,48,50,52,54,-1,-1,56,-1,58,60,62,64,66,68,70,72,74,-1,-1,76,-1,78,80,82,-1,-1,84,86,88,90,92,-1,-1,-1,-1,94,96,98,-1,100,102,-1,104,-1,-1,106,108,110,-1,-1,-1,-1,-1,-1,-1,-1,-1,-1,-1,-1,-1,-1,-1,-1,-1,-1,-1,-1,-1,-1,-1,-1,-1,-1,-1,-1,-1,-1,-1,-1,-1,-1],"split_conditions":[9.947462E-1,2.4742982E-1,-3.9237395E-1,1E0,9.312677E-1,2.7108993E-3,2.307384E-3,9.993535E-1,2.5272076E0,9.966536E-1,2.7108993E-3,9.6797377E-1,6.814565E-1,1.1201114E-3,8.4209144E-1,8.068671E-1,-1.3410581E0,-2.2647524E-2,6.901842E-3,7.5343633E-3,-2.9664908E-2,-3.253927E-2,7.1307695E-3,3.3463622E-3,-1.2814401E0,3.3463622E-3,-2.396951E-2,5.0821397E-3,1.0662125E0,-1.2801121E0,1.1746409E0,9.6452045E-1,2.542783E-1,8.715252E-3,-2.3762507E-2,-5.9609705E-1,1.1476829E-2,7.566358E-1,4.681425E-1,-2.8388932E-1,3.3463622E-3,-5.2975744E-1,-1.411204E0,2.8206446E0,-4.5365322E-1,9.155137E-1,